{"learner":{"attributes":{"scikit_learn":"{\"_estimator_type\": \"classifier\"}"},"feature_names":["RSI","MACD","MACD_signal","MACD_hist","MACD_cross_up","MACD_cross_down","BB_width","BB_pct","ATR","above_sma20","above_sma50","above_sma200","bb_squeeze","fg_normalized","contrarian_bull","contrarian_bear","days_to_fomc","fomc_proximity","is_opex_week","days_to_opex","vix_level","vix_regime"],"feature_types":["float","float","float","float","float","float","float","float","float","float","float","float","float","float","float","float","float","float","float","float","float","float"],"gradient_booster":{"model":{"gbtree_model_param":{"num_parallel_tree":"1","num_trees":"300"},"iteration_indptr":[0,1,2,3,4,5,6,7,8,9,10,11,12,13,14,15,16,17,18,19,20,21,22,23,24,25,26,27,28,29,30,31,32,33,34,35,36,37,38,39,40,41,42,43,44,45,46,47,48,49,50,51,52,53,54,55,56,57,58,59,60,61,62,63,64,65,66,67,68,69,70,71,72,73,74,75,76,77,78,79,80,81,82,83,84,85,86,87,88,89,90,91,92,93,94,95,96,97,98,99,100,101,102,103,104,105,106,107,108,109,110,111,112,113,114,115,116,117,118,119,120,121,122,123,124,125,126,127,128,129,130,131,132,133,134,135,136,137,138,139,140,141,142,143,144,145,146,147,148,149,150,151,152,153,154,155,156,157,158,159,160,161,162,163,164,165,166,167,168,169,170,171,172,173,174,175,176,177,178,179,180,181,182,183,184,185,186,187,188,189,190,191,192,193,194,195,196,197,198,199,200,201,202,203,204,205,206,207,208,209,210,211,212,213,214,215,216,217,218,219,220,221,222,223,224,225,226,227,228,229,230,231,232,233,234,235,236,237,238,239,240,241,242,243,244,245,246,247,248,249,250,251,252,253,254,255,256,257,258,259,260,261,262,263,264,265,266,267,268,269,270,271,272,273,274,275,276,277,278,279,280,281,282,283,284,285,286,287,288,289,290,291,292,293,294,295,296,297,298,299,300],"tree_info":[0,0,0,0,0,0,0,0,0,0,0,0,0,0,0,0,0,0,0,0,0,0,0,0,0,0,0,0,0,0,0,0,0,0,0,0,0,0,0,0,0,0,0,0,0,0,0,0,0,0,0,0,0,0,0,0,0,0,0,0,0,0,0,0,0,0,0,0,0,0,0,0,0,0,0,0,0,0,0,0,0,0,0,0,0,0,0,0,0,0,0,0,0,0,0,0,0,0,0,0,0,0,0,0,0,0,0,0,0,0,0,0,0,0,0,0,0,0,0,0,0,0,0,0,0,0,0,0,0,0,0,0,0,0,0,0,0,0,0,0,0,0,0,0,0,0,0,0,0,0,0,0,0,0,0,0,0,0,0,0,0,0,0,0,0,0,0,0,0,0,0,0,0,0,0,0,0,0,0,0,0,0,0,0,0,0,0,0,0,0,0,0,0,0,0,0,0,0,0,0,0,0,0,0,0,0,0,0,0,0,0,0,0,0,0,0,0,0,0,0,0,0,0,0,0,0,0,0,0,0,0,0,0,0,0,0,0,0,0,0,0,0,0,0,0,0,0,0,0,0,0,0,0,0,0,0,0,0,0,0,0,0,0,0,0,0,0,0,0,0,0,0,0,0,0,0,0,0,0,0,0,0,0,0,0,0,0,0,0,0,0,0,0,0,0,0,0,0,0,0],"trees":[{"base_weights":[5.2752956E-3,7.402507E-2,-3.4257975E-1,9.73644E-1,5.1267654E-2,-9.9259627E-1,-1.0597315E-1,1.1458888E0,-2.1784615E-2,-3.151196E-1,1.0833203E-1,-1.2007567E0,3.3944753E-1,-3.0415812E-1,3.3625248E-1,2.5785973E-2,7.030206E-2,2.5062218E-2,-2.1045135E-2,9.201289E-3,-8.693868E-3,-8.115282E-2,-3.585128E-2,-5.2925643E-2,4.3442577E-2,-2.6625271E-3,-4.138997E-2,2.4547065E-2,-8.499127E-2],"categories":[],"categories_nodes":[],"categories_segments":[],"categories_sizes":[],"default_left":[0,0,0,0,0,0,0,0,0,0,0,0,0,0,0,0,0,0,0,0,0,0,0,0,0,0,0,0,0],"id":0,"left_children":[1,3,5,7,9,11,13,15,-1,17,19,21,23,25,27,-1,-1,-1,-1,-1,-1,-1,-1,-1,-1,-1,-1,-1,-1],"loss_changes":[2.60717E1,1.8584908E1,2.7564516E1,5.9373016E0,1.8617132E1,1.3686893E1,1.176027E1,2.5926247E0,0E0,1.0576665E1,1.647565E1,7.342285E0,6.2869415E0,1.2093096E1,1.3949167E1,0E0,0E0,0E0,0E0,0E0,0E0,0E0,0E0,0E0,0E0,0E0,0E0,0E0,0E0],"parents":[2147483647,0,0,1,1,2,2,3,3,4,4,5,5,6,6,7,7,9,9,10,10,11,11,12,12,13,13,14,14],"right_children":[2,4,6,8,10,12,14,16,-1,18,20,22,24,26,28,-1,-1,-1,-1,-1,-1,-1,-1,-1,-1,-1,-1,-1,-1],"split_conditions":[5.447E3,9.2E1,5.732E3,7.4255056E0,8.12E2,6.09E1,6.174436E-1,4.8345726E-2,-2.1784615E-2,3.6423462E1,6.606447E1,-1.494585E-1,2.084082E-1,7.2823733E-1,1.2516944E0,2.5785973E-2,7.030206E-2,2.5062218E-2,-2.1045135E-2,9.201289E-3,-8.693868E-3,-8.115282E-2,-3.585128E-2,-5.2925643E-2,4.3442577E-2,-2.6625271E-3,-4.138997E-2,2.4547065E-2,-8.499127E-2],"split_indices":[16,16,16,1,16,20,2,6,0,0,0,3,6,7,2,0,0,0,0,0,0,0,0,0,0,0,0,0,0],"split_type":[0,0,0,0,0,0,0,0,0,0,0,0,0,0,0,0,0,0,0,0,0,0,0,0,0,0,0,0,0],"sum_hessian":[1.0881235E3,9.092144E2,1.7890915E2,2.1401768E1,8.878126E2,4.689151E1,1.3201764E2,1.9237543E1,2.1642237E0,1.190323E2,7.6878033E2,4.063931E1,6.2522016E0,9.1378334E1,4.063931E1,6.492671E0,1.2744872E1,1.3225811E1,1.0580649E2,6.0646356E2,1.6231677E2,2.043989E1,2.019942E1,1.4428158E0,4.809386E0,6.2522015E1,2.8856316E1,3.8475086E1,2.1642237E0],"tree_param":{"num_deleted":"0","num_feature":"22","num_nodes":"29","size_leaf_vector":"1"}},{"base_weights":[4.9122297E-3,7.048376E-2,-3.2569748E-1,9.3751645E-1,4.8748177E-2,-7.16051E-1,3.4126494E-2,1.2752539E0,1.3365309E-1,-2.9839638E-1,1.0303505E-1,-1.3462207E0,-5.1160663E-1,-9.021174E-2,1.0643109E-1,1.389875E-2,6.876692E-2,-3.431262E-2,4.2146835E-2,2.2247173E-2,-2.0165859E-2,-7.7566616E-3,9.125047E-3,-1.00646056E-1,-2.492915E-2,-3.0106897E-2,6.114727E-2,-8.772772E-3,3.748334E-2],"categories":[],"categories_nodes":[],"categories_segments":[],"categories_sizes":[],"default_left":[0,0,0,0,0,0,0,0,0,0,0,0,0,0,0,0,0,0,0,0,0,0,0,0,0,0,0,0,0],"id":1,"left_children":[1,3,5,7,9,11,13,15,17,19,21,23,25,-1,27,-1,-1,-1,-1,-1,-1,-1,-1,-1,-1,-1,-1,-1,-1],"loss_changes":[2.3629583E1,1.7094828E1,2.5364115E1,5.8536167E0,1.6771906E1,1.04655E1,1.2796865E1,1.1654835E0,5.045575E0,9.568893E0,1.5803808E1,1.0634975E1,1.125482E1,0E0,1.6846395E1,0E0,0E0,0E0,0E0,0E0,0E0,0E0,0E0,0E0,0E0,0E0,0E0,0E0,0E0],"parents":[2147483647,0,0,1,1,2,2,3,3,4,4,5,5,6,6,7,7,8,8,9,9,10,10,11,11,12,12,14,14],"right_children":[2,4,6,8,10,12,14,16,18,20,22,24,26,-1,28,-1,-1,-1,-1,-1,-1,-1,-1,-1,-1,-1,-1,-1,-1],"split_conditions":[5.447E3,9.2E1,5.963E3,6.418522E0,8.12E2,1.6009041E0,1.017E1,-8.6138535E-1,4.772272E-1,3.7109238E1,1.2050902E0,5.486305E-1,3.2916608E-1,-9.021174E-2,6.561222E-1,1.389875E-2,6.876692E-2,-3.431262E-2,4.2146835E-2,2.2247173E-2,-2.0165859E-2,-7.7566616E-3,9.125047E-3,-1.00646056E-1,-2.492915E-2,-3.0106897E-2,6.114727E-2,-8.772772E-3,3.748334E-2],"split_indices":[16,16,16,1,16,8,20,3,3,0,8,2,2,0,2,0,0,0,0,0,0,0,0,0,0,0,0,0,0],"split_type":[0,0,0,0,0,0,0,0,0,0,0,0,0,0,0,0,0,0,0,0,0,0,0,0,0,0,0,0,0],"sum_hessian":[1.0879376E3,9.085309E2,1.794068E2,2.1188498E1,8.8734235E2,8.5577934E1,9.3828865E1,1.4507057E1,6.6814413E0,1.1939008E2,7.679523E2,1.9594868E1,6.598307E1,2.644276E0,9.118459E1,1.6676258E0,1.2839432E1,3.1141133E0,3.567328E0,1.4366434E1,1.0502365E2,1.8052187E2,5.874304E2,1.0198558E1,9.39631E0,6.333052E1,2.6525474E0,6.3906113E1,2.7278479E1],"tree_param":{"num_deleted":"0","num_feature":"22","num_nodes":"29","size_leaf_vector":"1"}},{"base_weights":[4.647264E-3,6.7136005E-2,-3.0944538E-1,9.043067E-1,4.635192E-2,-8.626907E-1,-8.133753E-2,1.2038453E0,3.8856134E-2,-8.884576E-1,6.576227E-2,-1.0332752E0,3.4685683E-1,-2.7165765E-1,3.9564732E-1,7.543688E-3,6.75889E-2,-5.360195E-2,4.0346738E-2,-8.665139E-2,3.0860802E-2,3.809506E-3,-6.6118985E-2,-7.562608E-2,-3.319173E-2,-5.0022043E-2,4.2985346E-2,-1.3830665E-3,-3.838324E-2,4.0215123E-2,-2.4037888E-2],"categories":[],"categories_nodes":[],"categories_segments":[],"categories_sizes":[],"default_left":[0,0,0,0,0,0,0,0,0,0,0,0,0,0,0,0,0,0,0,0,0,0,0,0,0,0,0,0,0,0,0],"id":2,"left_children":[1,3,5,7,9,11,13,15,17,19,21,23,25,27,29,-1,-1,-1,-1,-1,-1,-1,-1,-1,-1,-1,-1,-1,-1,-1,-1],"loss_changes":[2.138783E1,1.577136E1,2.2749771E1,5.64662E0,1.6168547E1,1.1229031E1,1.1830653E1,2.332283E0,6.5649934E0,2.4123735E1,1.2704816E1,7.215622E0,5.8769035E0,1.1221914E1,1.3723486E1,0E0,0E0,0E0,0E0,0E0,0E0,0E0,0E0,0E0,0E0,0E0,0E0,0E0,0E0,0E0,0E0],"parents":[2147483647,0,0,1,1,2,2,3,3,4,4,5,5,6,6,7,7,8,8,9,9,10,10,11,11,12,12,13,13,14,14],"right_children":[2,4,6,8,10,12,14,16,18,20,22,24,26,28,30,-1,-1,-1,-1,-1,-1,-1,-1,-1,-1,-1,-1,-1,-1,-1,-1],"split_conditions":[5.447E3,9.2E1,5.755E3,7.074773E1,1.94E2,6.09E1,6.174436E-1,1.279E1,4.772272E-1,5.6200072E-2,5.9080644E0,-2.3258819E-1,2.084082E-1,5.5703075E1,1.0054061E0,7.543688E-3,6.75889E-2,-5.360195E-2,4.0346738E-2,-8.665139E-2,3.0860802E-2,3.809506E-3,-6.6118985E-2,-7.562608E-2,-3.319173E-2,-5.0022043E-2,4.2985346E-2,-1.3830665E-3,-3.838324E-2,4.0215123E-2,-2.4037888E-2],"split_indices":[16,16,16,0,16,20,2,20,3,6,2,3,6,0,2,0,0,0,0,0,0,0,0,0,0,0,0,0,0,0,0],"split_type":[0,0,0,0,0,0,0,0,0,0,0,0,0,0,0,0,0,0,0,0,0,0,0,0,0,0,0,0,0,0,0],"sum_hessian":[1.0876421E3,9.0781793E2,1.7982416E2,2.0962227E1,8.868557E2,5.1685616E1,1.2813855E2,1.5282011E1,5.6802163E0,1.7129309E1,8.6972644E2,4.5424984E1,6.2606306E0,9.1900215E1,3.623833E1,2.1313238E0,1.3150687E1,2.1601646E0,3.520052E0,1.0877082E1,6.2522273E0,8.6417975E2,5.546687E0,1.8427002E1,2.6997984E1,1.4639559E0,4.7966747E0,6.230624E1,2.9593979E1,2.4770481E1,1.1467849E1],"tree_param":{"num_deleted":"0","num_feature":"22","num_nodes":"31","size_leaf_vector":"1"}},{"base_weights":[4.2720498E-3,6.379007E-2,-2.9416138E-1,3.0497098E-2,5.4592055E-1,-6.479676E-1,3.512653E-2,5.82383E-2,-1.1172941E0,-6.980883E-2,6.4491874E-1,-2.0089883E-1,-8.9544386E-1,-8.651047E-2,1.0527395E-1,4.943515E-3,-2.042438E-2,-1.3181462E-2,-8.293121E-2,3.917228E-2,-2.2643797E-2,5.143862E-2,-2.9939309E-2,5.2000474E-2,-4.8332226E-2,-7.6500447E-3,3.5192754E-2],"categories":[],"categories_nodes":[],"categories_segments":[],"categories_sizes":[],"default_left":[0,0,0,0,0,0,0,0,0,0,0,0,0,0,0,0,0,0,0,0,0,0,0,0,0,0,0],"id":3,"left_children":[1,3,5,7,9,11,13,15,17,-1,19,21,23,-1,25,-1,-1,-1,-1,-1,-1,-1,-1,-1,-1,-1,-1],"loss_changes":[1.9347757E1,1.455964E1,2.1123928E1,2.7145752E1,1.2166641E1,9.4855995E0,1.1916482E1,1.5806573E1,8.86059E0,0E0,8.93779E0,1.6476757E1,8.714649E0,0E0,1.4343115E1,0E0,0E0,0E0,0E0,0E0,0E0,0E0,0E0,0E0,0E0,0E0,0E0],"parents":[2147483647,0,0,1,1,2,2,3,3,4,4,5,5,6,6,7,7,8,8,10,10,11,11,12,12,14,14],"right_children":[2,4,6,8,10,12,14,16,18,-1,20,22,24,-1,26,-1,-1,-1,-1,-1,-1,-1,-1,-1,-1,-1,-1],"split_conditions":[5.447E3,5.5E-1,5.963E3,5.05559E0,3.035676E0,-1.0489163E0,1.017E1,2.8E1,1.1E1,-6.980883E-2,7.228223E1,9.484991E-2,-9.7072534E-2,-8.651047E-2,6.561222E-1,4.943515E-3,-2.042438E-2,-1.3181462E-2,-8.293121E-2,3.917228E-2,-2.2643797E-2,5.143862E-2,-2.9939309E-2,5.2000474E-2,-4.8332226E-2,-7.6500447E-3,3.5192754E-2],"split_indices":[16,13,16,2,8,2,20,19,19,0,0,6,7,0,2,0,0,0,0,0,0,0,0,0,0,0,0],"split_type":[0,0,0,0,0,0,0,0,0,0,0,0,0,0,0,0,0,0,0,0,0,0,0,0,0,0,0],"sum_hessian":[1.0872115E3,9.0709204E2,1.8011949E2,8.494944E2,5.7597614E1,8.63607E1,9.375879E1,8.3037415E2,1.9120226E1,2.1580973E0,5.5439518E1,3.1417112E1,5.4943592E1,2.67879E0,9.1079994E1,7.645983E2,6.577586E1,7.996671E0,1.1123554E1,4.9481915E1,5.957603E0,7.2928786E0,2.4124235E1,1.466725E0,5.3476868E1,6.4146545E1,2.6933455E1],"tree_param":{"num_deleted":"0","num_feature":"22","num_nodes":"27","size_leaf_vector":"1"}},{"base_weights":[3.9130202E-3,6.0489036E-2,-2.791295E-1,8.532363E-1,4.1148E-2,-6.1249346E-1,3.284708E-2,1.1812418E0,9.4966464E-2,-2.8165308E-1,9.187166E-2,-4.7667462E-1,-1.4479109E0,-8.2630016E-2,1.005119E-1,1.0877219E-2,6.4121574E-2,-2.3650346E-2,5.371303E-2,2.2933206E-2,-1.8796735E-2,-7.696811E-3,8.389891E-3,-4.044257E-2,5.1198006E-3,9.713021E-3,-8.489894E-2,-7.2635673E-3,3.377968E-2],"categories":[],"categories_nodes":[],"categories_segments":[],"categories_sizes":[],"default_left":[0,0,0,0,0,0,0,0,0,0,0,0,0,0,0,0,0,0,0,0,0,0,0,0,0,0,0,0,0],"id":4,"left_children":[1,3,5,7,9,11,13,15,17,19,21,23,25,-1,27,-1,-1,-1,-1,-1,-1,-1,-1,-1,-1,-1,-1,-1,-1],"loss_changes":[1.7435774E1,1.3877378E1,1.8884592E1,5.2501345E0,1.4546396E1,9.265083E0,1.0960265E1,1.1800919E0,4.7339807E0,8.595269E0,1.4343311E1,1.4886301E1,5.1667976E0,0E0,1.3093077E1,0E0,0E0,0E0,0E0,0E0,0E0,0E0,0E0,0E0,0E0,0E0,0E0,0E0,0E0],"parents":[2147483647,0,0,1,1,2,2,3,3,4,4,5,5,6,6,7,7,8,8,9,9,10,10,11,11,12,12,14,14],"right_children":[2,4,6,8,10,12,14,16,18,20,22,24,26,-1,28,-1,-1,-1,-1,-1,-1,-1,-1,-1,-1,-1,-1,-1,-1],"split_conditions":[5.447E3,9.2E1,5.963E3,6.418522E0,8.12E2,1E0,1.017E1,-8.6138535E-1,7.1823376E-1,3.6423462E1,1.2050902E0,5.732E3,-4.6728057E-1,-8.2630016E-2,6.561222E-1,1.0877219E-2,6.4121574E-2,-2.3650346E-2,5.371303E-2,2.2933206E-2,-1.8796735E-2,-7.696811E-3,8.389891E-3,-4.044257E-2,5.1198006E-3,9.713021E-3,-8.489894E-2,-7.2635673E-3,3.377968E-2],"split_indices":[16,16,16,1,16,11,20,3,3,0,8,16,3,0,2,0,0,0,0,0,0,0,0,0,0,0,0,0,0],"split_type":[0,0,0,0,0,0,0,0,0,0,0,0,0,0,0,0,0,0,0,0,0,0,0,0,0,0,0,0,0],"sum_hessian":[1.0867683E3,9.0638226E2,1.8038612E2,2.0559927E1,8.858223E2,8.673828E1,9.364784E1,1.3962391E1,6.597536E0,1.1967404E2,7.6614825E2,7.595964E1,1.0778635E1,2.7104533E0,9.0937386E1,1.6260724E0,1.2336318E1,4.502916E0,2.0946202E0,1.3082548E1,1.0659149E2,1.8056122E2,5.8558704E2,4.8017933E1,2.7941711E1,1.4539375E0,9.3246975E0,6.423254E1,2.670485E1],"tree_param":{"num_deleted":"0","num_feature":"22","num_nodes":"29","size_leaf_vector":"1"}},{"base_weights":[3.696159E-3,-2.4999304E-2,5.131832E-1,-4.3654763E-3,-1.0515386E0,-6.716691E-2,6.098369E-1,5.279609E-2,-2.658209E-1,-2.4541579E-1,-1.5584483E0,7.44691E-1,-4.431362E-1,4.574727E-3,-1.9473782E-2,-2.5830451E-2,5.5643795E-3,1.6498955E-2,-7.667868E-2,-1.8204013E-2,-8.5867815E-2,4.4725206E-2,-7.5797625E-3,-6.4781904E-2,4.266161E-2],"categories":[],"categories_nodes":[],"categories_segments":[],"categories_sizes":[],"default_left":[0,0,0,0,0,0,0,0,0,0,0,0,0,0,0,0,0,0,0,0,0,0,0,0,0],"id":5,"left_children":[1,3,5,7,9,-1,11,13,15,17,19,21,23,-1,-1,-1,-1,-1,-1,-1,-1,-1,-1,-1,-1],"loss_changes":[1.5907275E1,2.1815683E1,1.1229178E1,1.5121628E1,7.910475E0,0E0,8.257828E0,1.4247187E1,1.7224655E1,7.192987E0,1.7040291E0,6.831276E0,8.803332E0,0E0,0E0,0E0,0E0,0E0,0E0,0E0,0E0,0E0,0E0,0E0,0E0],"parents":[2147483647,0,0,1,1,2,2,3,3,4,4,6,6,7,7,8,8,9,9,10,10,11,11,12,12],"right_children":[2,4,6,8,10,-1,12,14,16,18,20,22,24,-1,-1,-1,-1,-1,-1,-1,-1,-1,-1,-1,-1],"split_conditions":[5.5E-1,5.05559E0,3.035676E0,5.447E3,1.1E1,-6.716691E-2,7.228223E1,2.8E1,6.089E3,7.4255056E0,1.389E1,5.5862136E0,9.2933595E-1,4.574727E-3,-1.9473782E-2,-2.5830451E-2,5.5643795E-3,1.6498955E-2,-7.667868E-2,-1.8204013E-2,-8.5867815E-2,4.4725206E-2,-7.5797625E-3,-6.4781904E-2,4.266161E-2],"split_indices":[13,2,8,16,19,0,0,19,16,1,20,8,7,0,0,0,0,0,0,0,0,0,0,0,0],"split_type":[0,0,0,0,0,0,0,0,0,0,0,0,0,0,0,0,0,0,0,0,0,0,0,0,0],"sum_hessian":[1.0861741E3,1.0291604E3,5.701371E1,1.0098659E3,1.9294434E1,2.183062E0,5.4830647E1,8.293455E2,1.8052039E2,8.021783E0,1.1272651E1,4.8865253E1,5.9653955E0,7.6334644E2,6.599912E1,1.0819659E2,7.23238E1,6.059126E0,1.9626567E0,1.7101473E0,9.562503E0,4.186891E1,6.996342E0,3.5991378E0,2.3662574E0],"tree_param":{"num_deleted":"0","num_feature":"22","num_nodes":"25","size_leaf_vector":"1"}},{"base_weights":[3.3066007E-3,-2.3931777E-2,4.9045438E-1,-4.174148E-3,-1.0019512E0,-6.438575E-2,5.8453727E-1,5.0171725E-2,-2.5223538E-1,-2.3972145E-1,-1.4768306E0,7.1511215E-1,-4.2277998E-1,-1.4979816E-2,4.8293523E-3,-3.6950666E-2,-3.5214273E-3,1.5831636E-2,-7.368712E-2,-1.7601956E-2,-8.123693E-2,4.3032147E-2,-7.2390395E-3,-6.16723E-2,4.1459467E-2],"categories":[],"categories_nodes":[],"categories_segments":[],"categories_sizes":[],"default_left":[0,0,0,0,0,0,0,0,0,0,0,0,0,0,0,0,0,0,0,0,0,0,0,0,0],"id":6,"left_children":[1,3,5,7,9,-1,11,13,15,17,19,21,23,-1,-1,-1,-1,-1,-1,-1,-1,-1,-1,-1,-1],"loss_changes":[1.4430554E1,1.9899963E1,1.0386889E1,1.36375265E1,7.027441E0,0E0,7.5867176E0,1.35015545E1,1.6036589E1,6.6605353E0,1.4861221E0,6.3063335E0,8.110613E0,0E0,0E0,0E0,0E0,0E0,0E0,0E0,0E0,0E0,0E0,0E0,0E0],"parents":[2147483647,0,0,1,1,2,2,3,3,4,4,6,6,7,7,8,8,9,9,10,10,11,11,12,12],"right_children":[2,4,6,8,10,-1,12,14,16,18,20,22,24,-1,-1,-1,-1,-1,-1,-1,-1,-1,-1,-1,-1],"split_conditions":[5.5E-1,5.05559E0,3.035676E0,5.447E3,1.1E1,-6.438575E-2,7.228223E1,8.88E2,5.732E3,7.4255056E0,1.389E1,5.5862136E0,9.2933595E-1,-1.4979816E-2,4.8293523E-3,-3.6950666E-2,-3.5214273E-3,1.5831636E-2,-7.368712E-2,-1.7601956E-2,-8.123693E-2,4.3032147E-2,-7.2390395E-3,-6.16723E-2,4.1459467E-2],"split_indices":[13,2,8,16,19,0,0,16,16,1,20,8,7,0,0,0,0,0,0,0,0,0,0,0,0],"split_type":[0,0,0,0,0,0,0,0,0,0,0,0,0,0,0,0,0,0,0,0,0,0,0,0,0],"sum_hessian":[1.0856449E3,1.0290571E3,5.658782E1,1.0096644E3,1.9392645E1,2.206067E0,5.4381752E1,8.2887103E2,1.807934E2,8.021741E0,1.1370903E1,4.8398155E1,5.983595E0,9.646828E1,7.324028E2,4.832935E1,1.3246404E2,6.041407E0,1.980334E0,1.7143046E0,9.656599E0,4.1391983E1,7.0061717E0,3.6408765E0,2.3427184E0],"tree_param":{"num_deleted":"0","num_feature":"22","num_nodes":"25","size_leaf_vector":"1"}},{"base_weights":[2.9277415E-3,-2.2932028E-2,4.689981E-1,-4.0103286E-3,-9.5680225E-1,1.0521373E0,1.6102062E-1,4.7683097E-2,-2.3955369E-1,-2.3423803E-1,-1.4038477E0,1.1277642E0,-4.3726712E-3,7.83261E-1,-5.829569E-1,4.2279353E-3,-1.8590786E-2,-2.3522135E-2,5.465814E-3,1.5191646E-2,-7.0953384E-2,-1.7021868E-2,-7.7130035E-2,5.959334E-2,1.5382195E-2,5.859358E-2,8.919227E-3,-3.8139142E-2,4.595008E-2],"categories":[],"categories_nodes":[],"categories_segments":[],"categories_sizes":[],"default_left":[0,0,0,0,0,0,0,0,0,0,0,0,0,0,0,0,0,0,0,0,0,0,0,0,0,0,0,0,0],"id":7,"left_children":[1,3,5,7,9,11,13,15,17,19,21,23,-1,25,27,-1,-1,-1,-1,-1,-1,-1,-1,-1,-1,-1,-1,-1,-1],"loss_changes":[1.3099439E1,1.8193878E1,1.0091515E1,1.2314015E1,6.2761383E0,1.7848454E0,1.8311365E1,1.2861483E1,1.4711929E1,6.1788783E0,1.3091831E0,6.016846E-1,0E0,4.828186E0,5.600275E0,0E0,0E0,0E0,0E0,0E0,0E0,0E0,0E0,0E0,0E0,0E0,0E0,0E0,0E0],"parents":[2147483647,0,0,1,1,2,2,3,3,4,4,5,5,6,6,7,7,8,8,9,9,10,10,11,11,13,13,14,14],"right_children":[2,4,6,8,10,12,14,16,18,20,22,24,-1,26,28,-1,-1,-1,-1,-1,-1,-1,-1,-1,-1,-1,-1,-1,-1],"split_conditions":[5.5E-1,5.05559E0,2.908442E0,5.447E3,1.1E1,4.2103596E0,2.45E2,2.8E1,6.089E3,7.4255056E0,1.389E1,2.135E1,-4.3726712E-3,6.9185E1,2.5E1,4.2279353E-3,-1.8590786E-2,-2.3522135E-2,5.465814E-3,1.5191646E-2,-7.0953384E-2,-1.7021868E-2,-7.7130035E-2,5.959334E-2,1.5382195E-2,5.859358E-2,8.919227E-3,-3.8139142E-2,4.595008E-2],"split_indices":[13,2,2,16,19,1,16,19,16,1,20,20,0,0,19,0,0,0,0,0,0,0,0,0,0,0,0,0,0],"split_type":[0,0,0,0,0,0,0,0,0,0,0,0,0,0,0,0,0,0,0,0,0,0,0,0,0,0,0,0,0],"sum_hessian":[1.0849751E3,1.028841E3,5.613413E1,1.0093933E3,1.9447624E1,1.8565344E1,3.7568783E1,8.2838885E2,1.8100446E2,8.015714E0,1.1431911E1,1.7419693E1,1.1456499E0,2.0429426E1,1.7139359E1,7.62188E2,6.6200905E1,1.0870974E2,7.2294716E1,6.023709E0,1.9920046E0,1.7180704E0,9.7138405E0,1.5736415E1,1.6832783E0,1.1867578E1,8.561849E0,1.574624E1,1.393118E0],"tree_param":{"num_deleted":"0","num_feature":"22","num_nodes":"29","size_leaf_vector":"1"}},{"base_weights":[2.772944E-3,-2.195939E-2,4.516256E-1,-3.836004E-3,-9.1545475E-1,1.0171539E0,1.5575421E-1,4.5310453E-2,-2.2741927E-1,-2.2895883E-1,-1.3380711E0,1.0914701E0,-4.253192E-3,7.5623536E-1,-5.502054E-1,-1.4333871E-2,4.4765533E-3,-3.261743E-2,-2.4698044E-3,1.4577716E-2,-6.8445586E-2,-1.6462756E-2,-7.345634E-2,5.7705183E-2,1.4928611E-2,5.6917716E-2,8.537908E-3,-3.6086272E-2,4.4952586E-2],"categories":[],"categories_nodes":[],"categories_segments":[],"categories_sizes":[],"default_left":[0,0,0,0,0,0,0,0,0,0,0,0,0,0,0,0,0,0,0,0,0,0,0,0,0,0,0,0,0],"id":8,"left_children":[1,3,5,7,9,11,13,15,17,19,21,23,-1,25,27,-1,-1,-1,-1,-1,-1,-1,-1,-1,-1,-1,-1,-1,-1],"loss_changes":[1.2058286E1,1.6668934E1,9.333161E0,1.1109978E1,5.6309357E0,1.6740303E0,1.6704048E1,1.2195077E1,1.3750274E1,5.741903E0,1.163681E0,5.5709076E-1,0E0,4.5448437E0,5.1826887E0,0E0,0E0,0E0,0E0,0E0,0E0,0E0,0E0,0E0,0E0,0E0,0E0,0E0,0E0],"parents":[2147483647,0,0,1,1,2,2,3,3,4,4,5,5,6,6,7,7,8,8,9,9,10,10,11,11,13,13,14,14],"right_children":[2,4,6,8,10,12,14,16,18,20,22,24,-1,26,28,-1,-1,-1,-1,-1,-1,-1,-1,-1,-1,-1,-1,-1,-1],"split_conditions":[5.5E-1,5.05559E0,2.908442E0,5.447E3,1.1E1,4.2103596E0,2.45E2,8.88E2,5.755E3,7.4255056E0,1.389E1,2.135E1,-4.253192E-3,6.9185E1,2.5E1,-1.4333871E-2,4.4765533E-3,-3.261743E-2,-2.4698044E-3,1.4577716E-2,-6.8445586E-2,-1.6462756E-2,-7.345634E-2,5.7705183E-2,1.4928611E-2,5.6917716E-2,8.537908E-3,-3.6086272E-2,4.4952586E-2],"split_indices":[13,2,2,16,19,1,16,16,16,1,20,20,0,0,19,0,0,0,0,0,0,0,0,0,0,0,0,0,0],"split_type":[0,0,0,0,0,0,0,0,0,0,0,0,0,0,0,0,0,0,0,0,0,0,0,0,0,0,0,0,0],"sum_hessian":[1.0843239E3,1.0285979E3,5.572594E1,1.00913324E3,1.9464659E1,1.8303268E1,3.7422672E1,8.27939E2,1.8119421E2,8.004292E0,1.1460366E1,1.7156267E1,1.1469996E0,2.0183556E1,1.7239117E1,9.667383E1,7.312652E2,5.271136E1,1.2848285E2,6.0060935E0,1.998198E0,1.7214726E0,9.7388935E0,1.5478056E1,1.6782124E0,1.1641359E1,8.542196E0,1.5863652E1,1.3754654E0],"tree_param":{"num_deleted":"0","num_feature":"22","num_nodes":"29","size_leaf_vector":"1"}},{"base_weights":[2.6137726E-3,-2.104662E-2,4.3523625E-1,-3.685084E-3,-8.773869E-1,-5.8980256E-2,5.2394754E-1,-8.155871E-1,9.032121E-3,-2.2387584E-1,-1.2783663E0,6.4568436E-1,-3.8603425E-1,-7.4620195E-2,1.7573817E-2,2.9724475E-3,-1.0803427E-2,1.3988666E-2,-6.613658E-2,-1.5923679E-2,-7.0144586E-2,4.3294344E-2,5.6143505E-3,-5.7422657E-2,4.037589E-2],"categories":[],"categories_nodes":[],"categories_segments":[],"categories_sizes":[],"default_left":[0,0,0,0,0,0,0,0,0,0,0,0,0,0,0,0,0,0,0,0,0,0,0,0,0],"id":9,"left_children":[1,3,5,7,9,-1,11,13,15,17,19,21,23,-1,-1,-1,-1,-1,-1,-1,-1,-1,-1,-1,-1],"loss_changes":[1.1110616E1,1.5299216E1,8.681137E0,1.0433828E1,5.0722256E0,0E0,6.2364283E0,1.283434E1,1.1307576E1,5.344384E0,1.0426273E0,5.545738E0,7.300034E0,0E0,0E0,0E0,0E0,0E0,0E0,0E0,0E0,0E0,0E0,0E0,0E0],"parents":[2147483647,0,0,1,1,2,2,3,3,4,4,6,6,7,7,8,8,9,9,10,10,11,11,12,12],"right_children":[2,4,6,8,10,-1,12,14,16,18,20,22,24,-1,-1,-1,-1,-1,-1,-1,-1,-1,-1,-1,-1],"split_conditions":[5.5E-1,5.05559E0,3.035676E0,1.94E2,1.1E1,-5.8980256E-2,7.228223E1,4.8963405E-2,5.447E3,7.4255056E0,1.389E1,1E0,9.2933595E-1,-7.4620195E-2,1.7573817E-2,2.9724475E-3,-1.0803427E-2,1.3988666E-2,-6.613658E-2,-1.5923679E-2,-7.0144586E-2,4.3294344E-2,5.6143505E-3,-5.7422657E-2,4.037589E-2],"split_indices":[13,2,8,16,19,0,0,6,16,1,20,12,7,0,0,0,0,0,0,0,0,0,0,0,0],"split_type":[0,0,0,0,0,0,0,0,0,0,0,0,0,0,0,0,0,0,0,0,0,0,0,0,0],"sum_hessian":[1.0835482E3,1.0282632E3,5.5285004E1,1.0088147E3,1.9448515E1,2.238562E0,5.3046444E1,1.4584226E1,9.9423047E2,7.9880376E0,1.1460478E1,4.704344E1,6.0030017E0,9.05448E0,5.5297465E0,8.128979E2,1.8133258E2,5.988614E0,1.9994234E0,1.7245371E0,9.735941E0,3.2856106E1,1.4187334E1,3.6861458E0,2.316856E0],"tree_param":{"num_deleted":"0","num_feature":"22","num_nodes":"25","size_leaf_vector":"1"}},{"base_weights":[2.286703E-3,7.18633E-1,-1.12773385E-2,1.0433589E0,1.4904961E-2,-7.7757746E-1,2.0855754E-3,3.8592143E-3,1.1555429E0,-7.54343E-1,7.2139704E-1,-1.5064595E0,5.685063E-1,4.5759007E-2,-2.0502774E-1,6.1112076E-2,1.0603573E-2,-6.352207E-2,1.5792307E-2,5.2061357E-2,-4.889107E-3,-1.6836796E-2,-8.041409E-2,-8.619721E-3,5.1984936E-2,2.6706222E-2,1.0074651E-3,-1.7359955E-2,1.41058555E-2],"categories":[],"categories_nodes":[],"categories_segments":[],"categories_sizes":[],"default_left":[0,0,0,0,0,0,0,0,0,0,0,0,0,0,0,0,0,0,0,0,0,0,0,0,0,0,0,0,0],"id":10,"left_children":[1,3,5,7,9,11,13,-1,15,17,19,21,23,25,27,-1,-1,-1,-1,-1,-1,-1,-1,-1,-1,-1,-1,-1,-1],"loss_changes":[1.0539358E1,4.590646E0,1.0904052E1,1.4041901E0,4.554332E0,1.8762924E1,9.483839E0,0E0,5.1311684E-1,2.6223512E0,1.2434609E0,9.0122604E-1,2.6708283E0,1.0818333E1,1.2743745E1,0E0,0E0,0E0,0E0,0E0,0E0,0E0,0E0,0E0,0E0,0E0,0E0,0E0,0E0],"parents":[2147483647,0,0,1,1,2,2,3,3,4,4,5,5,6,6,8,8,9,9,10,10,11,11,12,12,13,13,14,14],"right_children":[2,4,6,8,10,12,14,-1,16,18,20,22,24,26,28,-1,-1,-1,-1,-1,-1,-1,-1,-1,-1,-1,-1,-1,-1],"split_conditions":[9.2E1,6.418522E0,1.94E2,-8.6138535E-1,4.772272E-1,5.6200072E-2,5.447E3,3.8592143E-3,8.1E-1,1.314E1,1.288E1,-1.6614467E0,4.8E-1,3.6088543E1,6.174436E-1,6.1112076E-2,1.0603573E-2,-6.352207E-2,1.5792307E-2,5.2061357E-2,-4.889107E-3,-1.6836796E-2,-8.041409E-2,-8.619721E-3,5.1984936E-2,2.6706222E-2,1.0074651E-3,-1.7359955E-2,1.41058555E-2],"split_indices":[16,1,16,3,3,6,16,0,13,20,20,3,13,0,2,0,0,0,0,0,0,0,0,0,0,0,0,0,0],"split_type":[0,0,0,0,0,0,0,0,0,0,0,0,0,0,0,0,0,0,0,0,0,0,0,0,0,0,0,0,0],"sum_hessian":[1.082847E3,1.9156755E1,1.0636903E3,1.2777932E1,6.3788223E0,1.725077E1,1.0464395E3,1.5049235E0,1.1273009E1,3.0213566E0,3.3574657E0,1.1113728E1,6.137042E0,8.6485E2,1.8158952E2,1.025272E1,1.020289E0,1.9121189E0,1.1092376E0,2.2197523E0,1.1377137E0,1.2348617E0,9.878866E0,2.6322448E0,3.5047972E0,4.2103283E1,8.227467E2,1.4078828E2,4.080124E1],"tree_param":{"num_deleted":"0","num_feature":"22","num_nodes":"29","size_leaf_vector":"1"}},{"base_weights":[2.2331553E-3,6.966517E-1,-1.0735029E-2,1.0162902E0,1.4357814E-2,-7.412996E-1,2.011446E-3,3.7466146E-3,1.1277754E0,-7.2596806E-1,7.023901E-1,-1.4336538E0,5.494628E-1,8.085538E-1,-8.619583E-3,5.9696432E-2,1.03602735E-2,-6.102885E-2,1.5421067E-2,-5.171273E-3,5.1068988E-2,-2.6179004E-2,-7.9347014E-2,-2.448058E-2,4.202221E-2,5.1991668E-2,-4.250913E-2,3.0634264E-4,-3.607235E-2],"categories":[],"categories_nodes":[],"categories_segments":[],"categories_sizes":[],"default_left":[0,0,0,0,0,0,0,0,0,0,0,0,0,0,0,0,0,0,0,0,0,0,0,0,0,0,0,0,0],"id":11,"left_children":[1,3,5,7,9,11,13,-1,15,17,19,21,23,25,27,-1,-1,-1,-1,-1,-1,-1,-1,-1,-1,-1,-1,-1,-1],"loss_changes":[9.762682E0,4.319722E0,9.913256E0,1.3343391E0,4.256131E0,1.710175E1,8.985528E0,0E0,4.8441792E-1,2.440542E0,1.2161307E0,8.6530304E-1,2.557053E0,6.1142187E0,1.0878791E1,0E0,0E0,0E0,0E0,0E0,0E0,0E0,0E0,0E0,0E0,0E0,0E0,0E0,0E0],"parents":[2147483647,0,0,1,1,2,2,3,3,4,4,5,5,6,6,8,8,9,9,10,10,11,11,12,12,13,13,14,14],"right_children":[2,4,6,8,10,12,14,-1,16,18,20,22,24,26,28,-1,-1,-1,-1,-1,-1,-1,-1,-1,-1,-1,-1,-1,-1],"split_conditions":[9.2E1,6.418522E0,1.94E2,-8.6138535E-1,4.772272E-1,5.6200072E-2,2.72E2,3.7466146E-3,8.1E-1,1.314E1,9E0,4.3E-1,-1.7538099E0,1.1196709E0,5.05559E0,5.9696432E-2,1.03602735E-2,-6.102885E-2,1.5421067E-2,-5.171273E-3,5.1068988E-2,-2.6179004E-2,-7.9347014E-2,-2.448058E-2,4.202221E-2,5.1991668E-2,-4.250913E-2,3.0634264E-4,-3.607235E-2],"split_indices":[16,1,16,3,3,6,16,0,13,20,19,13,3,3,2,0,0,0,0,0,0,0,0,0,0,0,0,0,0],"split_type":[0,0,0,0,0,0,0,0,0,0,0,0,0,0,0,0,0,0,0,0,0,0,0,0,0,0,0,0,0],"sum_hessian":[1.0822678E3,1.8874208E1,1.0633936E3,1.2519569E1,6.354639E0,1.725518E1,1.0461384E3,1.5027553E0,1.1016814E1,3.0344357E0,3.3202035E0,1.1158924E1,6.0962563E0,1.263331E1,1.0335051E3,1.0001175E1,1.0156397E0,1.9310685E0,1.1033671E0,1.1332405E0,2.186963E0,2.2451277E0,8.913796E0,1.1843615E0,4.911895E0,1.1414844E1,1.2184674E0,1.01352936E3,1.9975727E1],"tree_param":{"num_deleted":"0","num_feature":"22","num_nodes":"29","size_leaf_vector":"1"}},{"base_weights":[2.0995394E-3,-1.5730368E-2,4.8526838E-1,-2.5194776E-1,1.5995236E-2,7.5053205E-3,9.776511E-1,-3.779334E-1,2.610697E-1,1.9279362E-1,-6.148635E-2,8.0170166E-1,-5.57551E-1,1.0564623E0,-8.4828725E-3,6.1097974E-3,-3.173512E-2,4.2922094E-2,-1.4520662E-2,1.2982513E-2,-3.8194492E-2,-4.315429E-2,-2.1327473E-3,3.6858947E-3,5.5294164E-2,-4.959606E-2,1.9644517E-2,2.1315707E-2,6.1072517E-2],"categories":[],"categories_nodes":[],"categories_segments":[],"categories_sizes":[],"default_left":[0,0,0,0,0,0,0,0,0,0,0,0,0,0,0,0,0,0,0,0,0,0,0,0,0,0,0,0,0],"id":12,"left_children":[1,3,5,7,9,11,13,15,17,19,21,23,25,27,-1,-1,-1,-1,-1,-1,-1,-1,-1,-1,-1,-1,-1,-1,-1],"loss_changes":[9.335905E0,7.837242E0,9.065324E0,8.101582E0,1.2647787E1,9.683478E0,1.8959045E0,1.2895855E1,8.486632E0,1.819133E1,9.655998E0,1.9039779E0,5.5979996E0,1.3406372E0,0E0,0E0,0E0,0E0,0E0,0E0,0E0,0E0,0E0,0E0,0E0,0E0,0E0,0E0,0E0],"parents":[2147483647,0,0,1,1,2,2,3,3,4,4,5,5,6,6,7,7,8,8,9,9,10,10,11,11,12,12,13,13],"right_children":[2,4,6,8,10,12,14,16,18,20,22,24,26,28,-1,-1,-1,-1,-1,-1,-1,-1,-1,-1,-1,-1,-1,-1,-1],"split_conditions":[6.4E-1,8.88E2,4.127591E0,8.4653115E-1,2.655E3,7.896699E-1,1E0,4.3914104E1,6.9452114E-2,2.9E1,1.087E1,3.877756E-2,9.2318624E-1,8E0,-8.4828725E-3,6.1097974E-3,-3.173512E-2,4.2922094E-2,-1.4520662E-2,1.2982513E-2,-3.8194492E-2,-4.315429E-2,-2.1327473E-3,3.6858947E-3,5.5294164E-2,-4.959606E-2,1.9644517E-2,2.1315707E-2,6.1072517E-2],"split_indices":[13,16,8,7,16,7,4,0,6,19,20,6,7,19,0,0,0,0,0,0,0,0,0,0,0,0,0,0,0],"split_type":[0,0,0,0,0,0,0,0,0,0,0,0,0,0,0,0,0,0,0,0,0,0,0,0,0,0,0,0,0],"sum_hessian":[1.0818124E3,1.0442451E3,3.756731E1,1.22821205E2,9.214239E2,1.9581987E1,1.7985323E1,9.881722E1,2.400399E1,2.8031335E2,6.4111053E2,7.9663486E0,1.1615639E1,1.6903374E1,1.0819478E0,3.3700386E1,6.511683E1,1.1255406E1,1.2748584E1,2.6268454E2,1.7628794E1,1.3686413E1,6.2742413E2,2.7138247E0,5.252524E0,7.9422383E0,3.6734004E0,4.2510414E0,1.2652333E1],"tree_param":{"num_deleted":"0","num_feature":"22","num_nodes":"29","size_leaf_vector":"1"}},{"base_weights":[2.0557602E-3,-1.8589756E-2,3.8904873E-1,-2.7030122E-3,-8.052701E-1,9.348812E-1,1.0870376E-1,2.5475765E-2,-3.1914872E-1,-1.9062662E-1,-1.1870028E0,1.0111054E0,-6.783607E-3,6.672202E-1,-5.115748E-1,7.86614E-3,-3.233815E-3,-2.255393E-2,3.153441E-2,1.4456021E-2,-6.2490374E-2,-2.8293697E-2,-7.0392065E-2,5.3531867E-2,1.4056726E-2,5.2291848E-2,5.5547096E-3,-5.4954078E-2,-1.6195342E-3],"categories":[],"categories_nodes":[],"categories_segments":[],"categories_sizes":[],"default_left":[0,0,0,0,0,0,0,0,0,0,0,0,0,0,0,0,0,0,0,0,0,0,0,0,0,0,0,0,0],"id":13,"left_children":[1,3,5,7,9,11,13,15,17,19,21,23,-1,25,27,-1,-1,-1,-1,-1,-1,-1,-1,-1,-1,-1,-1,-1,-1],"loss_changes":[8.654579E0,1.28512335E1,8.293321E0,9.006327E0,4.5495615E0,1.6455421E0,1.3290023E1,1.1034885E1,1.0633319E1,4.929347E0,8.994541E-1,4.5402527E-1,0E0,4.116376E0,5.109332E0,0E0,0E0,0E0,0E0,0E0,0E0,0E0,0E0,0E0,0E0,0E0,0E0,0E0,0E0],"parents":[2147483647,0,0,1,1,2,2,3,3,4,4,5,5,6,6,7,7,8,8,9,9,10,10,11,11,13,13,14,14],"right_children":[2,4,6,8,10,12,14,16,18,20,22,24,-1,26,28,-1,-1,-1,-1,-1,-1,-1,-1,-1,-1,-1,-1,-1,-1],"split_conditions":[5.5E-1,5.05559E0,2.908442E0,2.8E1,1.1E1,4.2103596E0,2.45E2,2.912E3,9.644134E-2,7.4255056E0,1.863E1,2.135E1,-6.783607E-3,6.9185E1,7E-1,7.86614E-3,-3.233815E-3,-2.255393E-2,3.153441E-2,1.4456021E-2,-6.2490374E-2,-2.8293697E-2,-7.0392065E-2,5.3531867E-2,1.4056726E-2,5.2291848E-2,5.5547096E-3,-5.4954078E-2,-1.6195342E-3],"split_indices":[13,2,2,19,19,1,16,16,6,1,20,20,0,0,13,0,0,0,0,0,0,0,0,0,0,0,0,0,0],"split_type":[0,0,0,0,0,0,0,0,0,0,0,0,0,0,0,0,0,0,0,0,0,0,0,0,0,0,0,0,0],"sum_hessian":[1.0813159E3,1.0274547E3,5.386126E1,1.00809985E3,1.9354801E1,1.7484375E1,3.6376884E1,9.2651526E2,8.15846E1,7.989673E0,1.1365128E1,1.6374062E1,1.1103148E0,1.9101591E1,1.7275293E1,3.7594785E2,5.505674E2,7.209579E1,9.488817E0,5.9993515E0,1.9903218E0,3.915317E0,7.4498105E0,1.47078905E1,1.6661705E0,1.0840609E1,8.2609825E0,7.179352E0,1.00959425E1],"tree_param":{"num_deleted":"0","num_feature":"22","num_nodes":"29","size_leaf_vector":"1"}},{"base_weights":[1.907621E-3,6.410482E-1,-9.584126E-3,9.5559955E-1,-4.8841187E-3,-7.075117E-1,2.5377062E-3,1.5463323E-3,1.07103E0,-7.199538E-1,6.7127496E-1,-1.3570435E0,5.1861256E-1,4.24116E-2,-1.8590313E-1,5.6863237E-2,1.2855238E-2,-5.894233E-2,1.3807468E-2,4.9844023E-2,-6.5804715E-3,-1.3867231E-2,-7.273846E-2,-2.4164459E-2,4.02879E-2,4.779018E-3,-8.664458E-3,-2.2805678E-2,3.4262256E-3],"categories":[],"categories_nodes":[],"categories_segments":[],"categories_sizes":[],"default_left":[0,0,0,0,0,0,0,0,0,0,0,0,0,0,0,0,0,0,0,0,0,0,0,0,0,0,0,0,0],"id":14,"left_children":[1,3,5,7,9,11,13,-1,15,17,19,21,23,25,27,-1,-1,-1,-1,-1,-1,-1,-1,-1,-1,-1,-1,-1,-1],"loss_changes":[7.951008E0,3.8894577E0,8.999793E0,1.3398647E0,3.991855E0,1.5167076E1,7.870489E0,0E0,3.2251072E-1,2.158218E0,1.2415347E0,8.783417E-1,2.406843E0,9.930845E0,1.2607908E1,0E0,0E0,0E0,0E0,0E0,0E0,0E0,0E0,0E0,0E0,0E0,0E0,0E0,0E0],"parents":[2147483647,0,0,1,1,2,2,3,3,4,4,5,5,6,6,8,8,9,9,10,10,11,11,12,12,13,13,14,14],"right_children":[2,4,6,8,10,12,14,-1,16,18,20,22,24,26,28,-1,-1,-1,-1,-1,-1,-1,-1,-1,-1,-1,-1,-1,-1],"split_conditions":[9.2E1,6.418522E0,1.94E2,-8.6138535E-1,4.772272E-1,5.6200072E-2,5.447E3,1.5463323E-3,8E-1,1.314E1,1.288E1,-1.6614467E0,-1.7538099E0,6.606447E1,5.963E3,5.6863237E-2,1.2855238E-2,-5.894233E-2,1.3807468E-2,4.9844023E-2,-6.5804715E-3,-1.3867231E-2,-7.273846E-2,-2.4164459E-2,4.02879E-2,4.779018E-3,-8.664458E-3,-2.2805678E-2,3.4262256E-3],"split_indices":[16,1,16,3,3,6,16,0,13,20,20,3,3,0,16,0,0,0,0,0,0,0,0,0,0,0,0,0,0],"split_type":[0,0,0,0,0,0,0,0,0,0,0,0,0,0,0,0,0,0,0,0,0,0,0,0,0,0,0,0,0],"sum_hessian":[1.080693E3,1.8120054E1,1.0625729E3,1.1863463E1,6.256592E0,1.7160694E1,1.0454122E3,1.4573191E0,1.0406144E1,3.009323E0,3.2472687E0,1.1148219E1,6.0124745E0,8.634764E2,1.819358E2,9.255685E0,1.1504589E0,1.9346118E0,1.0747111E0,2.13842E0,1.1088487E0,1.2438496E0,9.904369E0,1.1871644E0,4.82531E0,6.931713E2,1.7030508E2,8.784687E1,9.408893E1],"tree_param":{"num_deleted":"0","num_feature":"22","num_nodes":"29","size_leaf_vector":"1"}},{"base_weights":[1.8032636E-3,-1.4145524E-2,4.448053E-1,-2.4332808E-1,1.6577918E-2,-5.5469405E-2,5.750513E-1,6.2750034E-2,-4.5255986E-1,2.6615453E-1,-3.2113057E-2,7.920849E-1,-5.619064E-1,-2.2217195E-2,1.9437326E-2,-7.75197E-2,-1.2796171E-2,1.6832093E-2,-3.5267767E-2,-7.2819434E-2,-7.3817046E-4,1.2081123E-2,5.213907E-2,-5.8707785E-2,3.1223288E-2],"categories":[],"categories_nodes":[],"categories_segments":[],"categories_sizes":[],"default_left":[0,0,0,0,0,0,0,0,0,0,0,0,0,0,0,0,0,0,0,0,0,0,0,0,0],"id":15,"left_children":[1,3,5,7,9,-1,11,13,15,17,19,21,23,-1,-1,-1,-1,-1,-1,-1,-1,-1,-1,-1,-1],"loss_changes":[7.6437073E0,7.3577566E0,8.248228E0,7.9387107E0,1.121104E1,0E0,9.167156E0,8.608675E0,1.5467429E1,1.055018E1,1.9061516E1,3.901247E0,5.273511E0,0E0,0E0,0E0,0E0,0E0,0E0,0E0,0E0,0E0,0E0,0E0,0E0],"parents":[2147483647,0,0,1,1,2,2,3,3,4,4,6,6,7,7,8,8,9,9,10,10,11,11,12,12],"right_children":[2,4,6,8,10,-1,12,14,16,18,20,22,24,-1,-1,-1,-1,-1,-1,-1,-1,-1,-1,-1,-1],"split_conditions":[6.4E-1,8.88E2,3.035676E0,4E2,1.862E3,-5.5469405E-2,7.228223E1,1.94E2,1.971E1,5.05559E0,1.916E3,4.8345726E-2,9.2933595E-1,-2.2217195E-2,1.9437326E-2,-7.75197E-2,-1.2796171E-2,1.6832093E-2,-3.5267767E-2,-7.2819434E-2,-7.3817046E-4,1.2081123E-2,5.213907E-2,-5.8707785E-2,3.1223288E-2],"split_indices":[13,16,8,16,16,0,0,16,20,2,16,6,7,0,0,0,0,0,0,0,0,0,0,0,0],"split_type":[0,0,0,0,0,0,0,0,0,0,0,0,0,0,0,0,0,0,0,0,0,0,0,0,0],"sum_hessian":[1.0799685E3,1.0433734E3,3.659506E1,1.2251898E2,9.208545E2,2.248355E0,3.4346703E1,5.003076E1,7.248822E1,1.4959668E2,7.712578E2,2.909592E1,5.250783E0,1.943547E1,3.059529E1,9.965517E0,6.2522705E1,1.4008629E2,9.510393E0,8.283713E0,7.6297406E2,9.719126E0,1.9376795E1,3.4702127E0,1.7805704E0],"tree_param":{"num_deleted":"0","num_feature":"22","num_nodes":"25","size_leaf_vector":"1"}},{"base_weights":[1.5496543E-3,6.1170644E-1,-9.158809E-3,9.24259E-1,-1.9114653E-2,-6.622671E-1,2.1489593E-3,8.1644807E-4,1.0412003E0,-6.1025363E-1,3.8181834E-2,-1.28156E0,5.0851166E-1,7.4515843E-1,-7.4627986E-3,5.540036E-2,1.2120007E-2,8.961327E-3,-5.645622E-2,-2.1138689E-2,-7.1716815E-2,-8.3324835E-3,4.788234E-2,4.8548155E-2,-4.105446E-2,8.076243E-4,-1.7551033E-2],"categories":[],"categories_nodes":[],"categories_segments":[],"categories_sizes":[],"default_left":[0,0,0,0,0,0,0,0,0,0,0,0,0,0,0,0,0,0,0,0,0,0,0,0,0,0,0],"id":16,"left_children":[1,3,5,7,9,11,13,-1,15,17,-1,19,21,23,25,-1,-1,-1,-1,-1,-1,-1,-1,-1,-1,-1,-1],"loss_changes":[7.0645137E0,3.6944833E0,7.849771E0,1.3091421E0,3.7782283E0,1.3767689E1,7.4730153E0,0E0,3.2106018E-1,2.1006737E0,0E0,9.831753E-1,2.2744455E0,5.523505E0,8.388733E0,0E0,0E0,0E0,0E0,0E0,0E0,0E0,0E0,0E0,0E0,0E0,0E0],"parents":[2147483647,0,0,1,1,2,2,3,3,4,4,5,5,6,6,8,8,9,9,11,11,12,12,13,13,14,14],"right_children":[2,4,6,8,10,12,14,-1,16,18,-1,20,22,24,26,-1,-1,-1,-1,-1,-1,-1,-1,-1,-1,-1,-1],"split_conditions":[9.2E1,6.418522E0,1.94E2,-8.6138535E-1,4.4E1,5.6200072E-2,2.72E2,8.1644807E-4,8E-1,7.074773E1,3.8181834E-2,4.3E-1,4.8E-1,1.1196709E0,3.448393E0,5.540036E-2,1.2120007E-2,8.961327E-3,-5.645622E-2,-2.1138689E-2,-7.1716815E-2,-8.3324835E-3,4.788234E-2,4.8548155E-2,-4.105446E-2,8.076243E-4,-1.7551033E-2],"split_indices":[16,1,16,3,16,6,16,0,13,0,0,13,13,3,2,0,0,0,0,0,0,0,0,0,0,0,0],"split_type":[0,0,0,0,0,0,0,0,0,0,0,0,0,0,0,0,0,0,0,0,0,0,0,0,0,0,0],"sum_hessian":[1.0793618E3,1.7648449E1,1.0617134E3,1.1490225E1,6.1582236E0,1.7089666E1,1.0446237E3,1.4411099E0,1.0049115E1,3.6341002E0,2.5241232E0,1.1115442E1,5.9742246E0,1.236362E1,1.03226E3,8.916317E0,1.1327977E0,1.7008225E0,1.9332778E0,2.2477376E0,8.867704E0,2.6378448E0,3.33638E0,1.1137942E1,1.2256774E0,9.667604E2,6.549964E1],"tree_param":{"num_deleted":"0","num_feature":"22","num_nodes":"27","size_leaf_vector":"1"}},{"base_weights":[1.4813524E-3,3.7798207E-2,-1.7672853E-1,1.9164931E-2,5.743632E-1,-5.9003067E-1,-2.2666963E-2,4.436201E-1,-9.949808E-4,-4.034164E-1,9.318223E-1,-8.257937E-1,2.938456E-1,1.3083026E-1,-5.1985073E-1,3.6862604E-2,-4.890421E-3,9.7391586E-4,-3.0773003E-2,-6.6151544E-2,1.9706523E-2,6.2149655E-2,-3.7066482E-3,-6.0207795E-2,-2.2659717E-2,5.0083585E-2,-1.6367212E-2,-2.0551127E-3,3.832669E-2,-8.309567E-2,-8.3322665E-3],"categories":[],"categories_nodes":[],"categories_segments":[],"categories_sizes":[],"default_left":[0,0,0,0,0,0,0,0,0,0,0,0,0,0,0,0,0,0,0,0,0,0,0,0,0,0,0,0,0,0,0],"id":17,"left_children":[1,3,5,7,9,11,13,15,17,19,21,23,25,27,29,-1,-1,-1,-1,-1,-1,-1,-1,-1,-1,-1,-1,-1,-1,-1,-1],"loss_changes":[6.995586E0,8.965961E0,1.1637978E1,7.4345746E0,1.0896229E1,1.0588478E1,1.0320117E1,6.3351235E0,1.0458341E1,6.9433355E0,7.086279E0,5.0166492E0,5.248891E0,1.1337904E1,1.2587521E1,0E0,0E0,0E0,0E0,0E0,0E0,0E0,0E0,0E0,0E0,0E0,0E0,0E0,0E0,0E0,0E0],"parents":[2147483647,0,0,1,1,2,2,3,3,4,4,5,5,6,6,7,7,8,8,9,9,10,10,11,11,12,12,13,13,14,14],"right_children":[2,4,6,8,10,12,14,16,18,20,22,24,26,28,30,-1,-1,-1,-1,-1,-1,-1,-1,-1,-1,-1,-1,-1,-1,-1,-1],"split_conditions":[5.447E3,3.597E1,5.732E3,3.6088543E1,-3.0111506E0,5.513E1,8.4980506E-1,-5.7824737E-1,7.8325396E0,1.1719401E1,2.3E1,-2.3258819E-1,5.553E3,6.561222E-1,3.1100175E-1,3.6862604E-2,-4.890421E-3,9.7391586E-4,-3.0773003E-2,-6.6151544E-2,1.9706523E-2,6.2149655E-2,-3.7066482E-3,-6.0207795E-2,-2.2659717E-2,5.0083585E-2,-1.6367212E-2,-2.0551127E-3,3.832669E-2,-8.309567E-2,-8.3322665E-3],"split_indices":[16,20,16,0,2,20,7,2,8,8,19,3,16,2,2,0,0,0,0,0,0,0,0,0,0,0,0,0,0,0,0],"split_type":[0,0,0,0,0,0,0,0,0,0,0,0,0,0,0,0,0,0,0,0,0,0,0,0,0,0,0,0,0,0,0],"sum_hessian":[1.0788643E3,8.9687976E2,1.8198453E2,8.6778015E2,2.9099657E1,4.864755E1,1.3333698E2,3.839481E1,8.293853E2,7.7559013E0,2.1343756E1,3.8455685E1,1.0191863E1,1.0244549E2,3.0891485E1,2.4659557E1,1.3735253E1,8.035792E2,2.5806076E1,3.2962604E0,4.459641E0,1.612133E1,5.2224245E0,1.7972965E1,2.048272E1,4.4774485E0,5.714415E0,8.137274E1,2.1072744E1,6.4218125E0,2.4469673E1],"tree_param":{"num_deleted":"0","num_feature":"22","num_nodes":"31","size_leaf_vector":"1"}},{"base_weights":[1.3430679E-3,-1.3534014E-2,4.2176554E-1,2.1867058E-1,-4.241798E-2,-5.359154E-2,5.496E-1,-9.008006E-1,3.5183904E-1,-3.8235936E-1,1.2136381E-2,7.5908923E-1,-5.2986497E-1,-5.8971416E-2,2.1027466E-2,2.5097296E-2,-3.166393E-2,-2.9687583E-2,9.850051E-3,3.2179027E-3,-1.6420854E-2,1.1265376E-2,5.0353188E-2,-5.5395264E-2,3.0061617E-2],"categories":[],"categories_nodes":[],"categories_segments":[],"categories_sizes":[],"default_left":[0,0,0,0,0,0,0,0,0,0,0,0,0,0,0,0,0,0,0,0,0,0,0,0,0],"id":18,"left_children":[1,3,5,7,9,-1,11,13,15,17,19,21,23,-1,-1,-1,-1,-1,-1,-1,-1,-1,-1,-1,-1],"loss_changes":[6.75619E0,7.0070496E0,7.637756E0,1.7548569E1,1.72289E1,0E0,8.2417965E0,5.1234903E0,1.5699435E1,1.5850868E1,1.4271648E1,3.6704578E0,4.73503E0,0E0,0E0,0E0,0E0,0E0,0E0,0E0,0E0,0E0,0E0,0E0,0E0],"parents":[2147483647,0,0,1,1,2,2,3,3,4,4,6,6,7,7,8,8,9,9,10,10,11,11,12,12],"right_children":[2,4,6,8,10,-1,12,14,16,18,20,22,24,-1,-1,-1,-1,-1,-1,-1,-1,-1,-1,-1,-1],"split_conditions":[6.4E-1,1.021977E0,3.035676E0,2E0,1.1861458E0,-5.359154E-2,7.228223E1,6.0918942E-2,6.398E3,1.863E1,5.447E3,4.8345726E-2,9.2933595E-1,-5.8971416E-2,2.1027466E-2,2.5097296E-2,-3.166393E-2,-2.9687583E-2,9.850051E-3,3.2179027E-3,-1.6420854E-2,1.1265376E-2,5.0353188E-2,-5.5395264E-2,3.0061617E-2],"split_indices":[13,8,8,19,8,0,0,6,16,20,16,6,7,0,0,0,0,0,0,0,0,0,0,0,0],"split_type":[0,0,0,0,0,0,0,0,0,0,0,0,0,0,0,0,0,0,0,0,0,0,0,0,0],"sum_hessian":[1.0782725E3,1.0423555E3,3.591701E1,1.1458784E2,9.277676E2,2.2495165E0,3.3667496E1,1.1569054E1,1.0301878E2,1.2746896E2,8.0029865E2,2.844419E1,5.2233067E0,9.643065E0,1.925988E0,8.982258E1,1.3196205E1,9.337442E1,3.4094543E1,6.945976E2,1.0570103E2,9.627957E0,1.8816233E1,3.4703236E0,1.7529832E0],"tree_param":{"num_deleted":"0","num_feature":"22","num_nodes":"25","size_leaf_vector":"1"}},{"base_weights":[1.2159856E-3,3.0290228E-1,-1.7855028E-2,2.8940108E-2,6.640508E-1,-1.7096117E-1,5.2770577E-2,4.1457197E-1,-2.6870728E-1,1.0321708E0,-1.5070644E-1,9.6623224E-1,-2.1700196E-1,-3.344749E-1,9.263462E-2,4.5220587E-2,-3.4246776E-2,-2.395737E-2,4.6251453E-2,2.216276E-2,6.21424E-2,-4.133184E-2,1.634519E-2,5.668533E-2,-9.341906E-3,-6.190093E-3,-4.4495247E-2,-4.3134615E-2,-4.199897E-3,5.4289387E-3,-4.2668764E-2],"categories":[],"categories_nodes":[],"categories_segments":[],"categories_sizes":[],"default_left":[0,0,0,0,0,0,0,0,0,0,0,0,0,0,0,0,0,0,0,0,0,0,0,0,0,0,0,0,0,0,0],"id":19,"left_children":[1,3,5,7,9,11,13,15,17,19,21,23,25,27,29,-1,-1,-1,-1,-1,-1,-1,-1,-1,-1,-1,-1,-1,-1,-1,-1],"loss_changes":[6.210871E0,6.3310995E0,1.0988528E1,4.4206038E0,8.445703E0,1.7003866E1,1.0769344E1,9.639289E0,5.9183683E0,1.8270397E0,3.3288934E0,2.657464E0,1.927472E1,8.5462265E0,9.617411E0,0E0,0E0,0E0,0E0,0E0,0E0,0E0,0E0,0E0,0E0,0E0,0E0,0E0,0E0,0E0,0E0],"parents":[2147483647,0,0,1,1,2,2,3,3,4,4,5,5,6,6,7,7,8,8,9,9,10,10,11,11,12,12,13,13,14,14],"right_children":[2,4,6,8,10,12,14,16,18,20,22,24,26,28,30,-1,-1,-1,-1,-1,-1,-1,-1,-1,-1,-1,-1,-1,-1,-1,-1],"split_conditions":[3.6088543E1,2.8E1,-1.2010637E-1,2.154E1,4.364E1,1.021977E0,2E0,2.2E1,1.1590816E-1,-2.449202E0,2.3427175E-1,6.425E3,-1.694919E-1,1.2147529E0,6.448E3,4.5220587E-2,-3.4246776E-2,-2.395737E-2,4.6251453E-2,2.216276E-2,6.21424E-2,-4.133184E-2,1.634519E-2,5.668533E-2,-9.341906E-3,-6.190093E-3,-4.4495247E-2,-4.3134615E-2,-4.199897E-3,5.4289387E-3,-4.2668764E-2],"split_indices":[0,20,3,20,20,8,19,19,6,3,6,16,3,8,16,0,0,0,0,0,0,0,0,0,0,0,0,0,0,0,0],"split_type":[0,0,0,0,0,0,0,0,0,0,0,0,0,0,0,0,0,0,0,0,0,0,0,0,0,0,0,0,0,0,0],"sum_hessian":[1.0775614E3,6.3182842E1,1.0143786E3,3.6542416E1,2.6640425E1,3.1976135E2,6.9461725E2,1.574734E1,2.0795078E1,1.8165932E1,8.474494E0,1.1664532E1,3.0809683E2,6.414195E1,6.304753E2,1.1016732E1,4.730607E0,1.8187477E1,2.6075997E0,5.604202E0,1.2561729E1,3.206197E0,5.2682967E0,1.0199874E1,1.4646579E0,2.716553E2,3.644151E1,1.9845867E1,4.4296085E1,6.208959E2,9.579426E0],"tree_param":{"num_deleted":"0","num_feature":"22","num_nodes":"31","size_leaf_vector":"1"}},{"base_weights":[1.1860569E-3,5.7888895E-1,-8.683484E-3,8.90702E-1,-3.8391102E-2,-6.4919764E-1,2.323596E-3,3.3339223E-1,5.6902584E-2,-7.2627455E-1,6.305242E-1,-1.2329695E0,4.7165942E-1,7.1231353E-1,-6.762705E-3,-2.5883112E-2,3.733809E-2,-5.699579E-2,1.1260136E-2,4.7338825E-2,-6.5359212E-3,-1.7650438E-2,-6.8491034E-2,3.7630863E-2,-2.3642657E-2,4.6727743E-2,-3.998391E-2,2.9161648E-4,-3.085174E-2],"categories":[],"categories_nodes":[],"categories_segments":[],"categories_sizes":[],"default_left":[0,0,0,0,0,0,0,0,0,0,0,0,0,0,0,0,0,0,0,0,0,0,0,0,0,0,0,0,0],"id":20,"left_children":[1,3,5,7,9,11,13,15,-1,17,19,21,23,25,27,-1,-1,-1,-1,-1,-1,-1,-1,-1,-1,-1,-1,-1,-1],"loss_changes":[6.1533666E0,3.5233703E0,7.4832687E0,1.2865419E0,3.698471E0,1.2315002E1,6.741668E0,2.1910586E0,0E0,1.806108E0,1.1122099E0,9.696865E-1,2.1774724E0,5.184588E0,7.9365497E0,0E0,0E0,0E0,0E0,0E0,0E0,0E0,0E0,0E0,0E0,0E0,0E0,0E0,0E0],"parents":[2147483647,0,0,1,1,2,2,3,3,4,4,5,5,6,6,7,7,9,9,10,10,11,11,12,12,13,13,14,14],"right_children":[2,4,6,8,10,12,14,16,-1,18,20,22,24,26,28,-1,-1,-1,-1,-1,-1,-1,-1,-1,-1,-1,-1,-1,-1],"split_conditions":[9.2E1,6.418522E0,1.94E2,4.7359318E-2,4.772272E-1,5.6200072E-2,2.72E2,3.9700844E0,5.6902584E-2,1.314E1,1.288E1,3.8481995E-2,5.5650556E-1,1.1196709E0,5.05559E0,-2.5883112E-2,3.733809E-2,-5.699579E-2,1.1260136E-2,4.7338825E-2,-6.5359212E-3,-1.7650438E-2,-6.8491034E-2,3.7630863E-2,-2.3642657E-2,4.6727743E-2,-3.998391E-2,2.9161648E-4,-3.085174E-2],"split_indices":[16,1,16,6,3,6,16,8,0,20,20,7,7,3,2,0,0,0,0,0,0,0,0,0,0,0,0,0,0],"split_type":[0,0,0,0,0,0,0,0,0,0,0,0,0,0,0,0,0,0,0,0,0,0,0,0,0,0,0,0,0],"sum_hessian":[1.0773417E3,1.7127844E1,1.0602137E3,1.1085276E1,6.0425677E0,1.6932169E1,1.0432816E3,4.1293006E0,6.955975E0,2.9367707E0,3.1057968E0,1.1067763E1,5.864406E0,1.2205025E1,1.0310765E3,1.267482E0,2.8618188E0,1.9088686E0,1.0279021E0,2.0220342E0,1.0837629E0,1.9713552E0,9.096408E0,4.6764903E0,1.1879157E0,1.0973919E1,1.2311054E0,1.0111975E3,1.9879047E1],"tree_param":{"num_deleted":"0","num_feature":"22","num_nodes":"29","size_leaf_vector":"1"}},{"base_weights":[1.1074136E-3,-1.2763997E-2,4.001546E-1,-2.3275222E-1,1.6623454E-2,-5.1962156E-2,5.2592546E-1,5.28504E-2,-4.2471015E-1,3.151422E-1,-2.1367276E-2,7.2919023E-1,-5.0714797E-1,6.534088E-2,-3.266411E-3,-7.307883E-2,-1.1906044E-2,4.2650674E-2,-2.206478E-3,-6.229993E-4,-9.4917156E-2,1.0728068E-2,4.868468E-2,-5.2859724E-2,2.8981334E-2],"categories":[],"categories_nodes":[],"categories_segments":[],"categories_sizes":[],"default_left":[0,0,0,0,0,0,0,0,0,0,0,0,0,0,0,0,0,0,0,0,0,0,0,0,0],"id":21,"left_children":[1,3,5,7,9,-1,11,13,15,17,19,21,23,-1,-1,-1,-1,-1,-1,-1,-1,-1,-1,-1,-1],"loss_changes":[5.970802E0,6.7435784E0,7.1065626E0,6.7613845E0,1.0447083E1,0E0,7.5069485E0,7.5391E0,1.3895572E1,2.0133785E1,1.3645514E1,3.4162807E0,4.3057156E0,0E0,0E0,0E0,0E0,0E0,0E0,0E0,0E0,0E0,0E0,0E0,0E0],"parents":[2147483647,0,0,1,1,2,2,3,3,4,4,6,6,7,7,8,8,9,9,10,10,11,11,12,12],"right_children":[2,4,6,8,10,-1,12,14,16,18,20,22,24,-1,-1,-1,-1,-1,-1,-1,-1,-1,-1,-1,-1],"split_conditions":[6.4E-1,8.88E2,3.035676E0,4E2,1.58E3,-5.1962156E-2,7.228223E1,1E0,1.971E1,5.14371E-2,3.65521E0,4.8345726E-2,9.2933595E-1,6.534088E-2,-3.266411E-3,-7.307883E-2,-1.1906044E-2,4.2650674E-2,-2.206478E-3,-6.229993E-4,-9.4917156E-2,1.0728068E-2,4.868468E-2,-5.2859724E-2,2.8981334E-2],"split_indices":[13,16,8,16,16,0,0,11,20,6,2,6,7,0,0,0,0,0,0,0,0,0,0,0,0],"split_type":[0,0,0,0,0,0,0,0,0,0,0,0,0,0,0,0,0,0,0,0,0,0,0,0,0],"sum_hessian":[1.0767454E3,1.0415092E3,3.5236225E1,1.21920204E2,9.1958887E2,2.2478209E0,3.2988407E1,4.9297745E1,7.262246E1,1.0299472E2,8.165942E2,2.7810616E1,5.1777887E0,3.3795974E0,4.5918148E1,1.0033535E1,6.258892E1,4.0695133E1,6.2299587E1,8.137392E2,2.8550048E0,9.56204E0,1.8248575E1,3.4558878E0,1.721901E0],"tree_param":{"num_deleted":"0","num_feature":"22","num_nodes":"25","size_leaf_vector":"1"}},{"base_weights":[9.877408E-4,2.913208E-1,-1.7300243E-2,-1.94179E-2,5.889861E-1,-4.2012596E-1,8.072923E-3,2.6528212E-1,-7.4172527E-1,8.5162777E-1,-1.454032E-1,-1.0327814E0,-9.90188E-2,1.3027512E-1,-6.437246E-2,2.5976209E-2,-2.475793E-2,-5.3324845E-2,4.204913E-2,2.326653E-2,5.9890952E-2,-2.8457522E-2,2.7499542E-2,4.8291918E-2,-6.2401045E-2,1.9977152E-2,-3.198014E-2,1.1886939E-2,-3.8573917E-3,-4.1180793E-2,-2.2591993E-3],"categories":[],"categories_nodes":[],"categories_segments":[],"categories_sizes":[],"default_left":[0,0,0,0,0,0,0,0,0,0,0,0,0,0,0,0,0,0,0,0,0,0,0,0,0,0,0,0,0,0,0],"id":22,"left_children":[1,3,5,7,9,11,13,15,17,19,21,23,25,27,29,-1,-1,-1,-1,-1,-1,-1,-1,-1,-1,-1,-1,-1,-1,-1,-1],"loss_changes":[5.724548E0,5.9208093E0,1.037064E1,6.8236604E0,6.4237595E0,1.1725514E1,8.464664E0,4.868571E0,5.7154236E0,2.679491E0,3.100079E0,1.0053881E1,1.1185253E1,7.9501762E0,8.709108E0,0E0,0E0,0E0,0E0,0E0,0E0,0E0,0E0,0E0,0E0,0E0,0E0,0E0,0E0,0E0,0E0],"parents":[2147483647,0,0,1,1,2,2,3,3,4,4,5,5,6,6,7,7,8,8,9,9,10,10,11,11,12,12,13,13,14,14],"right_children":[2,4,6,8,10,12,14,16,18,20,22,24,26,28,30,-1,-1,-1,-1,-1,-1,-1,-1,-1,-1,-1,-1,-1,-1,-1,-1],"split_conditions":[3.6088543E1,2.608E1,-8.0145097E-1,8.2569376E-2,4.364E1,1E0,2.655E3,2.2E1,1.1590816E-1,-9.52914E-1,6.9700636E-2,4E2,2.4543124E-1,6.5409385E-2,1.087E1,2.5976209E-2,-2.475793E-2,-5.3324845E-2,4.204913E-2,2.326653E-2,5.9890952E-2,-2.8457522E-2,2.7499542E-2,4.8291918E-2,-6.2401045E-2,1.9977152E-2,-3.198014E-2,1.1886939E-2,-3.8573917E-3,-4.1180793E-2,-2.2591993E-3],"split_indices":[0,20,3,6,20,11,16,19,6,3,7,16,7,6,20,0,0,0,0,0,0,0,0,0,0,0,0,0,0,0,0],"split_type":[0,0,0,0,0,0,0,0,0,0,0,0,0,0,0,0,0,0,0,0,0,0,0,0,0,0,0,0,0,0,0],"sum_hessian":[1.0761998E3,6.288778E1,1.01331213E3,3.122556E1,3.166222E1,5.9122486E1,9.5418964E2,2.2851349E1,8.374211E0,2.320405E1,8.45817E0,1.9569193E1,3.9553295E1,3.548403E2,5.993493E2,1.7363075E1,5.4882736E0,7.2190247E0,1.1551867E0,1.2074674E1,1.1129375E1,5.3684063E0,3.0897644E0,1.5635432E0,1.800565E1,2.0712126E1,1.884117E1,2.3364505E2,1.2119524E2,1.3740666E1,5.8560864E2],"tree_param":{"num_deleted":"0","num_feature":"22","num_nodes":"31","size_leaf_vector":"1"}},{"base_weights":[9.686829E-4,2.1281436E-1,-2.4399642E-2,-8.033183E-1,3.356677E-1,-3.5846102E-1,2.7256798E-2,-1.4055293E0,-1.6417363E-1,4.757904E-1,-5.720667E-1,-5.5738074E-1,1.9062234E-1,7.648469E-2,-3.0917943E-1,-1.54429665E-2,-8.0420226E-2,3.1809986E-2,-7.7952154E-2,-1.39178205E-2,3.0578107E-2,1.5142617E-2,-7.389414E-2,-3.87648E-2,-1.1302578E-2,3.1648446E-2,-4.106563E-2,1.4627065E-2,1.0108799E-3,-6.9137275E-2,-1.2429008E-2],"categories":[],"categories_nodes":[],"categories_segments":[],"categories_sizes":[],"default_left":[0,0,0,0,0,0,0,0,0,0,0,0,0,0,0,0,0,0,0,0,0,0,0,0,0,0,0,0,0,0,0],"id":23,"left_children":[1,3,5,7,9,11,13,15,17,19,21,23,25,27,29,-1,-1,-1,-1,-1,-1,-1,-1,-1,-1,-1,-1,-1,-1,-1,-1],"loss_changes":[5.792208E0,1.4658294E1,1.66201E1,4.6678696E0,1.3441114E1,1.4193829E1,1.3846E1,9.317255E-1,9.1488695E0,9.409567E0,1.1779728E1,6.6791534E0,1.6207008E1,8.8546505E0,6.5997057E0,0E0,0E0,0E0,0E0,0E0,0E0,0E0,0E0,0E0,0E0,0E0,0E0,0E0,0E0,0E0,0E0],"parents":[2147483647,0,0,1,1,2,2,3,3,4,4,5,5,6,6,7,7,8,8,9,9,10,10,11,11,12,12,13,13,14,14],"right_children":[2,4,6,8,10,12,14,16,18,20,22,24,26,28,30,-1,-1,-1,-1,-1,-1,-1,-1,-1,-1,-1,-1,-1,-1,-1,-1],"split_conditions":[1.021977E0,2E0,1.1861458E0,3.928237E-2,6.398E3,1.863E1,5.447E3,2.6327547E-2,1.3013407E0,1.087E1,6.7262846E-1,4.8154134E-2,7.588831E-2,1.4412249E0,5.474E3,-1.54429665E-2,-8.0420226E-2,3.1809986E-2,-7.7952154E-2,-1.39178205E-2,3.0578107E-2,1.5142617E-2,-7.389414E-2,-3.87648E-2,-1.1302578E-2,3.1648446E-2,-4.106563E-2,1.4627065E-2,1.0108799E-3,-6.9137275E-2,-1.2429008E-2],"split_indices":[8,19,8,6,16,20,16,6,1,20,7,6,6,8,16,0,0,0,0,0,0,0,0,0,0,0,0,0,0,0,0],"split_type":[0,0,0,0,0,0,0,0,0,0,0,0,0,0,0,0,0,0,0,0,0,0,0,0,0,0,0,0,0,0,0],"sum_hessian":[1.0758204E3,1.1426103E2,9.615594E2,1.1726996E1,1.02534035E2,1.27979385E2,8.3358E2,5.420576E0,6.30642E0,8.923508E1,1.3298953E1,9.393418E1,3.4045204E1,7.278522E2,1.0572784E2,1.2399998E0,4.1805763E0,4.352731E0,1.9536886E0,1.3454056E1,7.578102E1,7.1034536E0,6.1954994E0,5.5857033E1,3.807715E1,2.3950314E1,1.0094891E1,1.4952005E2,5.7833215E2,4.4833717E0,1.0124446E2],"tree_param":{"num_deleted":"0","num_feature":"22","num_nodes":"31","size_leaf_vector":"1"}},{"base_weights":[6.586032E-4,5.759067E-3,-1.0051931E0,7.000043E-1,-4.492032E-3,1.3433351E-2,-6.8563394E-2,6.9191284E-2,1.0170885E0,-6.3135797E-1,6.2314994E-3,2.5301117E-2,-5.0407555E-2,5.6792684E-2,1.3697862E-2,-5.9477944E-2,2.2421407E-2,3.392955E-2,-1.14579954E-4],"categories":[],"categories_nodes":[],"categories_segments":[],"categories_sizes":[],"default_left":[0,0,0,0,0,0,0,0,0,0,0,0,0,0,0,0,0,0,0],"id":24,"left_children":[1,3,5,7,9,-1,-1,11,13,15,17,-1,-1,-1,-1,-1,-1,-1,-1],"loss_changes":[5.526727E0,7.6302366E0,2.9029322E0,3.0500984E0,7.110025E0,0E0,0E0,3.4711003E0,5.986843E-1,1.1255582E1,5.9631767E0,0E0,0E0,0E0,0E0,0E0,0E0,0E0,0E0],"parents":[2147483647,0,0,1,1,2,2,3,3,4,4,7,7,8,8,9,9,10,10],"right_children":[2,4,6,8,10,-1,-1,12,14,16,18,-1,-1,-1,-1,-1,-1,-1,-1],"split_conditions":[7.4255056E0,9.2E1,7.129502E-2,4.8345726E-2,1.94E2,1.3433351E-2,-6.8563394E-2,4.2234275E-2,7.228223E1,5.6200072E-2,2.72E2,2.5301117E-2,-5.0407555E-2,5.6792684E-2,1.3697862E-2,-5.9477944E-2,2.2421407E-2,3.392955E-2,-1.14579954E-4],"split_indices":[1,16,6,6,16,0,0,3,0,6,16,0,0,0,0,0,0,0,0],"split_type":[0,0,0,0,0,0,0,0,0,0,0,0,0,0,0,0,0,0,0],"sum_hessian":[1.0751412E3,1.0707062E3,4.4350524E0,1.4600732E1,1.0561055E3,1.0494128E0,3.3856397E0,5.2916474E0,9.309084E0,1.6789087E1,1.0393163E3,4.1423497E0,1.1492975E0,7.5706882E0,1.7383962E0,1.1000607E1,5.7884808E0,1.2025757E1,1.0272905E3],"tree_param":{"num_deleted":"0","num_feature":"22","num_nodes":"19","size_leaf_vector":"1"}},{"base_weights":[6.204739E-4,5.463487E-1,-8.489737E-3,6.334125E-2,2.3525302E-1,-1.1830725E-1,4.9543664E-2,7.452381E-1,-1.0111363E0,-5.0931223E-2,-6.223826E-1,-3.126855E-1,8.6970866E-2,5.287081E-2,-1.8726667E-2,-6.520017E-2,-1.1692334E-2,2.9798192E-3,-1.7807987E-2,6.0076114E-2,-3.9488897E-2,2.7327051E-2,-2.210932E-2,5.08294E-3,-3.8791355E-2],"categories":[],"categories_nodes":[],"categories_segments":[],"categories_sizes":[],"default_left":[0,0,0,0,0,0,0,0,0,0,0,0,0,0,0,0,0,0,0,0,0,0,0,0,0],"id":25,"left_children":[1,3,5,-1,7,9,11,13,15,17,19,21,23,-1,-1,-1,-1,-1,-1,-1,-1,-1,-1,-1,-1],"loss_changes":[5.3522453E0,3.6638994E0,6.75453E0,0E0,9.381504E0,1.2412689E1,9.429378E0,3.964456E0,6.888566E-1,1.0961942E1,1.4111715E1,7.492572E0,8.054495E0,0E0,0E0,0E0,0E0,0E0,0E0,0E0,0E0,0E0,0E0,0E0,0E0],"parents":[2147483647,0,0,1,1,2,2,4,4,5,5,6,6,7,7,8,8,9,9,10,10,11,11,12,12],"right_children":[2,4,6,-1,8,10,12,14,16,18,20,22,24,-1,-1,-1,-1,-1,-1,-1,-1,-1,-1,-1,-1],"split_conditions":[2.9535547E1,8.2569376E-2,-1.2010637E-1,6.334125E-2,-2.1644735E0,-1.694919E-1,2E0,5.093E1,-1.592687E0,4.552E3,9.777218E-1,9.37E2,6.448E3,5.287081E-2,-1.8726667E-2,-6.520017E-2,-1.1692334E-2,2.9798192E-3,-1.7807987E-2,6.0076114E-2,-3.9488897E-2,2.7327051E-2,-2.210932E-2,5.08294E-3,-3.8791355E-2],"split_indices":[0,6,3,0,1,3,19,20,1,16,8,16,16,0,0,0,0,0,0,0,0,0,0,0,0],"split_type":[0,0,0,0,0,0,0,0,0,0,0,0,0,0,0,0,0,0,0,0,0,0,0,0,0],"sum_hessian":[1.0746093E3,1.6676348E1,1.057933E3,4.102681E0,1.2573668E1,3.654146E2,6.925184E2,9.208079E0,3.3655877E0,3.2330222E2,4.211238E1,6.4164536E1,6.283538E2,7.24418E0,1.9638994E0,1.9523518E0,1.4132358E0,2.3794403E2,8.535819E1,3.020785E0,3.9091595E1,7.982308E0,5.6182228E1,6.187034E2,9.65039E0],"tree_param":{"num_deleted":"0","num_feature":"22","num_nodes":"25","size_leaf_vector":"1"}},{"base_weights":[6.0498714E-4,2.797053E-1,-1.685879E-2,1.8411355E-2,6.268926E-1,-4.0121388E-1,7.4033537E-3,-9.75768E-2,5.190683E-2,9.657716E-1,-1.1460692E-1,-8.884447E-1,-1.3231317E-2,1.20121814E-1,-5.918786E-2,3.11748E-3,-3.952137E-2,1.9801708E-2,5.863456E-2,8.72829E-3,-5.6667633E-2,1.769399E-2,-5.337271E-2,-4.4855315E-2,1.8702403E-2,1.3004926E-2,-1.4621135E-3,-1.960398E-4,-1.6266221E-2],"categories":[],"categories_nodes":[],"categories_segments":[],"categories_sizes":[],"default_left":[0,0,0,0,0,0,0,0,0,0,0,0,0,0,0,0,0,0,0,0,0,0,0,0,0,0,0,0,0],"id":26,"left_children":[1,3,5,7,9,11,13,15,-1,17,19,21,23,25,27,-1,-1,-1,-1,-1,-1,-1,-1,-1,-1,-1,-1,-1,-1],"loss_changes":[5.245755E0,5.7378454E0,9.448517E0,4.500178E0,6.94166E0,1.1360735E1,7.1659155E0,3.8507195E0,0E0,1.7476559E0,2.9731843E0,6.30525E0,1.2147265E1,7.419824E0,8.827E0,0E0,0E0,0E0,0E0,0E0,0E0,0E0,0E0,0E0,0E0,0E0,0E0,0E0,0E0],"parents":[2147483647,0,0,1,1,2,2,3,3,4,4,5,5,6,6,7,7,9,9,10,10,11,11,12,12,13,13,14,14],"right_children":[2,4,6,8,10,12,14,16,-1,18,20,22,24,26,28,-1,-1,-1,-1,-1,-1,-1,-1,-1,-1,-1,-1,-1,-1],"split_conditions":[3.6088543E1,2.8E1,-8.0145097E-1,3.5669582E1,4.364E1,1.1E1,2.655E3,2.4E1,5.190683E-2,-2.449202E0,3.4445263E1,5.6261312E-2,2.8E-1,5.375322E-2,1.2055373E0,3.11748E-3,-3.952137E-2,1.9801708E-2,5.863456E-2,8.72829E-3,-5.6667633E-2,1.769399E-2,-5.337271E-2,-4.4855315E-2,1.8702403E-2,1.3004926E-2,-1.4621135E-3,-1.960398E-4,-1.6266221E-2],"split_indices":[0,20,3,0,20,19,16,19,0,3,0,7,13,6,2,0,0,0,0,0,0,0,0,0,0,0,0,0,0],"split_type":[0,0,0,0,0,0,0,0,0,0,0,0,0,0,0,0,0,0,0,0,0,0,0,0,0,0,0,0,0],"sum_hessian":[1.0742734E3,6.2376507E1,1.011897E3,3.6191635E1,2.6184872E1,5.9160107E1,9.527369E2,3.330741E1,2.8842247E0,1.7763958E1,8.420914E0,2.5653889E1,3.3506218E1,3.5352457E2,5.9921234E2,2.7800423E1,5.506989E0,5.509079E0,1.2254879E1,7.2045393E0,1.2163745E0,3.1079378E0,2.254595E1,9.80718E0,2.3699038E1,1.8211446E2,1.7141011E2,4.970148E2,1.021975E2],"tree_param":{"num_deleted":"0","num_feature":"22","num_nodes":"29","size_leaf_vector":"1"}},{"base_weights":[5.7457574E-4,2.0468098E-1,-2.380113E-2,-7.499718E-1,3.211017E-1,-3.3538702E-1,2.4647724E-2,-1.0062625E0,2.2465652E-2,4.5272288E-1,-5.245278E-1,-5.2441186E-1,1.8918106E-1,7.0605524E-2,-2.886722E-1,2.3965206E-2,-6.2143367E-2,6.439188E-2,1.615328E-2,1.5213926E-2,-6.900247E-2,-3.648993E-2,-1.0545029E-2,3.0664777E-2,-3.84483E-2,4.3653257E-2,2.8066693E-3,-2.0959498E-2,8.334989E-3],"categories":[],"categories_nodes":[],"categories_segments":[],"categories_sizes":[],"default_left":[0,0,0,0,0,0,0,0,0,0,0,0,0,0,0,0,0,0,0,0,0,0,0,0,0,0,0,0,0],"id":27,"left_children":[1,3,5,7,9,11,13,15,-1,17,19,21,23,25,27,-1,-1,-1,-1,-1,-1,-1,-1,-1,-1,-1,-1,-1,-1],"loss_changes":[5.3532414E0,1.2998821E1,1.4518632E1,4.379343E0,1.17031765E1,1.2931569E1,1.2012162E1,4.404476E0,0E0,9.293953E0,1.0586223E1,5.9889545E0,1.4700825E1,8.394643E0,6.412981E0,0E0,0E0,0E0,0E0,0E0,0E0,0E0,0E0,0E0,0E0,0E0,0E0,0E0,0E0],"parents":[2147483647,0,0,1,1,2,2,3,3,4,4,5,5,6,6,7,7,9,9,10,10,11,11,12,12,13,13,14,14],"right_children":[2,4,6,8,10,12,14,16,-1,18,20,22,24,26,28,-1,-1,-1,-1,-1,-1,-1,-1,-1,-1,-1,-1,-1,-1],"split_conditions":[1.021977E0,2E0,1.1861458E0,6.0918942E-2,6.398E3,1.863E1,5.447E3,6.8527955E-1,2.2465652E-2,5.749874E-1,6.7262846E-1,4.8154134E-2,7.588831E-2,1.04E1,2.3E1,2.3965206E-2,-6.2143367E-2,6.439188E-2,1.615328E-2,1.5213926E-2,-6.900247E-2,-3.648993E-2,-1.0545029E-2,3.0664777E-2,-3.84483E-2,4.3653257E-2,2.8066693E-3,-2.0959498E-2,8.334989E-3],"split_indices":[8,19,8,6,16,20,16,7,0,7,7,6,6,20,19,0,0,0,0,0,0,0,0,0,0,0,0,0,0],"split_type":[0,0,0,0,0,0,0,0,0,0,0,0,0,0,0,0,0,0,0,0,0,0,0,0,0,0,0,0,0],"sum_hessian":[1.0739979E3,1.13790764E2,9.602072E2,1.17770195E1,1.0201374E2,1.2841537E2,8.317918E2,9.835987E0,1.9410317E0,8.8676056E1,1.3337685E1,9.439944E1,3.401595E1,7.260669E2,1.0572491E2,1.2104155E0,8.625572E0,1.071685E1,7.7959206E1,7.101895E0,6.2357893E0,5.6232635E1,3.8166798E1,2.3828438E1,1.0187511E1,1.1811448E1,7.1425543E2,8.223449E1,2.3490417E1],"tree_param":{"num_deleted":"0","num_feature":"22","num_nodes":"29","size_leaf_vector":"1"}},{"base_weights":[5.5902055E-4,5.5013276E-3,-9.7931755E-1,6.741013E-1,-4.1532028E-3,1.2975678E-2,-6.676036E-2,5.514418E-2,9.924426E-1,-6.1618423E-1,6.251505E-3,2.4397282E-2,-4.9415883E-2,5.599862E-2,1.3381763E-2,-5.7441812E-2,2.1079207E-2,3.2058585E-2,-8.482335E-5],"categories":[],"categories_nodes":[],"categories_segments":[],"categories_sizes":[],"default_left":[0,0,0,0,0,0,0,0,0,0,0,0,0,0,0,0,0,0,0],"id":28,"left_children":[1,3,5,7,9,-1,-1,11,13,15,17,-1,-1,-1,-1,-1,-1,-1,-1],"loss_changes":[5.2080207E0,6.908988E0,2.7259321E0,2.9472518E0,6.7262936E0,0E0,0E0,3.2972956E0,6.2479115E-1,1.0244337E1,5.2442346E0,0E0,0E0,0E0,0E0,0E0,0E0,0E0,0E0],"parents":[2147483647,0,0,1,1,2,2,3,3,4,4,7,7,8,8,9,9,10,10],"right_children":[2,4,6,8,10,-1,-1,12,14,16,18,-1,-1,-1,-1,-1,-1,-1,-1],"split_conditions":[7.4255056E0,9.2E1,7.129502E-2,4.8345726E-2,1.94E2,1.2975678E-2,-6.676036E-2,4.2234275E-2,6.671006E0,5.6200072E-2,2.72E2,2.4397282E-2,-4.9415883E-2,5.599862E-2,1.3381763E-2,-5.7441812E-2,2.1079207E-2,3.2058585E-2,-8.482335E-5],"split_indices":[1,16,6,6,16,0,0,3,1,6,16,0,0,0,0,0,0,0,0],"split_type":[0,0,0,0,0,0,0,0,0,0,0,0,0,0,0,0,0,0,0],"sum_hessian":[1.0732913E3,1.0688944E3,4.39691E0,1.4235404E1,1.054659E3,1.0416814E0,3.3552287E0,5.2333407E0,9.002063E0,1.665656E1,1.0380024E3,4.075362E0,1.1579785E0,7.1915164E0,1.8105462E0,1.0936297E1,5.720264E0,1.1848138E1,1.0261543E3],"tree_param":{"num_deleted":"0","num_feature":"22","num_nodes":"19","size_leaf_vector":"1"}},{"base_weights":[5.2414055E-4,2.0634182E-2,-2.258848E-1,2.6388505E-2,-6.481478E-2,-3.7891546E-1,4.387079E-1,1.2055014E-1,-4.7927864E-2,4.6696126E-1,-4.9887204E-1,8.6320776E-1,-8.344808E-2,-4.733772E-3,1.0766E-2,-6.7363285E-2,-8.6979725E-4,3.7823543E-2,-4.030849E-2,-2.8308291E-2,3.799313E-2,5.4371845E-2,1.15281124E-4],"categories":[],"categories_nodes":[],"categories_segments":[],"categories_sizes":[],"default_left":[0,0,0,0,0,0,0,0,0,0,0,0,0,0,0,0,0,0,0,0,0,0,0],"id":29,"left_children":[1,3,5,7,-1,9,11,13,15,17,19,21,-1,-1,-1,-1,-1,-1,-1,-1,-1,-1,-1],"loss_changes":[4.8935304E0,7.5142736E0,9.083124E0,6.889865E0,0E0,7.5186396E0,1.653728E1,8.877204E0,2.1816917E1,4.087206E0,5.7977962E0,2.835886E0,0E0,0E0,0E0,0E0,0E0,0E0,0E0,0E0,0E0,0E0,0E0],"parents":[2147483647,0,0,1,1,2,2,3,3,5,5,6,6,7,7,8,8,9,9,10,10,11,11],"right_children":[2,4,6,8,-1,10,12,14,16,18,20,22,-1,-1,-1,-1,-1,-1,-1,-1,-1,-1,-1],"split_conditions":[2.8E1,7.4255056E0,8.664439E-2,2.912E3,-6.481478E-2,-1.0489163E0,4.916828E0,8.88E2,2.991E3,5.832E3,5.1E-1,1.4857528E0,-8.344808E-2,-4.733772E-3,1.0766E-2,-6.7363285E-2,-8.6979725E-4,3.7823543E-2,-4.030849E-2,-2.8308291E-2,3.799313E-2,5.4371845E-2,1.15281124E-4],"split_indices":[19,1,6,16,0,2,8,16,16,16,13,2,0,0,0,0,0,0,0,0,0,0,0],"split_type":[0,0,0,0,0,0,0,0,0,0,0,0,0,0,0,0,0,0,0,0,0,0,0],"sum_hessian":[1.072747E3,9.860713E2,8.667573E1,9.827571E2,3.3141937E0,7.0802444E1,1.5873283E1,4.3322394E2,5.4953314E2,8.434391E0,6.2368057E1,1.3703703E1,2.1695805E0,1.324428E2,3.0078116E2,1.1626377E1,5.3790674E2,7.202389E0,1.2320021E0,5.972527E1,2.642787E0,1.0663238E1,3.040466E0],"tree_param":{"num_deleted":"0","num_feature":"22","num_nodes":"23","size_leaf_vector":"1"}},{"base_weights":[3.7599364E-4,1.9778335E-1,-2.3145901E-2,-7.1184134E-1,3.09361E-1,-2.963169E-1,2.6111994E-2,-1.2684082E0,-1.2418073E-1,4.356889E-1,-4.9894086E-1,-4.664139E-1,1.9327433E-1,9.9470294E-1,1.0797563E-2,-1.26038445E-2,-7.314112E-2,3.1719055E-2,-7.206688E-2,4.218299E-2,9.559991E-3,4.5757173E-3,-8.1174724E-2,-3.5605527E-2,-8.926101E-3,2.8333003E-2,-3.0570453E-2,6.289987E-2,-3.051482E-2,2.627735E-3,-1.3501291E-2],"categories":[],"categories_nodes":[],"categories_segments":[],"categories_sizes":[],"default_left":[0,0,0,0,0,0,0,0,0,0,0,0,0,0,0,0,0,0,0,0,0,0,0,0,0,0,0,0,0,0,0],"id":30,"left_children":[1,3,5,7,9,11,13,15,17,19,21,23,25,27,29,-1,-1,-1,-1,-1,-1,-1,-1,-1,-1,-1,-1,-1,-1,-1,-1],"loss_changes":[4.988708E0,1.1829629E1,1.2925267E1,4.02928E0,1.0692408E1,1.2310418E1,1.2067435E1,9.088316E-1,8.243091E0,8.741156E0,9.664909E0,7.5968513E0,1.1927079E1,6.118911E0,9.425685E0,0E0,0E0,0E0,0E0,0E0,0E0,0E0,0E0,0E0,0E0,0E0,0E0,0E0,0E0,0E0,0E0],"parents":[2147483647,0,0,1,1,2,2,3,3,4,4,5,5,6,6,7,7,8,8,9,9,10,10,11,11,12,12,13,13,14,14],"right_children":[2,4,6,8,10,12,14,16,18,20,22,24,26,28,30,-1,-1,-1,-1,-1,-1,-1,-1,-1,-1,-1,-1,-1,-1,-1,-1],"split_conditions":[1.021977E0,2E0,1.2050902E0,3.928237E-2,6.398E3,1.863E1,1.053E1,2.6327547E-2,1.3013407E0,1.1E1,6.7631975E-2,2.883831E-2,7.588831E-2,2.9E1,5.447E3,-1.26038445E-2,-7.314112E-2,3.1719055E-2,-7.206688E-2,4.218299E-2,9.559991E-3,4.5757173E-3,-8.1174724E-2,-3.5605527E-2,-8.926101E-3,2.8333003E-2,-3.0570453E-2,6.289987E-2,-3.051482E-2,2.627735E-3,-1.3501291E-2],"split_indices":[8,19,8,6,16,20,20,6,1,19,3,3,6,19,16,0,0,0,0,0,0,0,0,0,0,0,0,0,0,0,0],"split_type":[0,0,0,0,0,0,0,0,0,0,0,0,0,0,0,0,0,0,0,0,0,0,0,0,0,0,0,0,0,0,0],"sum_hessian":[1.0723805E3,1.1338543E2,9.589951E2,1.1800813E1,1.0158462E2,1.4574072E2,8.132544E2,5.4658065E0,6.3350067E0,8.8252754E1,1.3331864E1,1.0819741E2,3.7543312E1,1.1662848E1,8.015915E2,1.2464402E0,4.219366E0,4.348842E0,1.9861642E0,3.2151657E1,5.6101097E1,9.344229E0,3.9876356E0,5.7581703E1,5.0615704E1,2.584611E1,1.1697203E1,1.0204962E1,1.4578872E0,6.985354E2,1.0305613E2],"tree_param":{"num_deleted":"0","num_feature":"22","num_nodes":"31","size_leaf_vector":"1"}},{"base_weights":[2.1522975E-4,3.293992E-2,-1.4274943E-1,-4.417888E-2,1.4503762E-1,2.4727055E-1,-2.7719468E-1,-8.090832E-2,4.4428086E-1,-5.2090365E-1,2.0743524E-1,-7.2338924E-2,8.9834154E-1,-7.256232E-3,-6.0359675E-1,-4.006156E-4,-2.050399E-2,3.7254352E-2,-1.6147902E-2,-5.38598E-2,2.8959799E-4,3.276777E-2,6.432034E-3,1.7245522E-2,-2.1562219E-2,5.100469E-2,-1.277626E-2,2.0402586E-2,-2.100772E-2,-3.5595383E-2,2.5705606E-2],"categories":[],"categories_nodes":[],"categories_segments":[],"categories_sizes":[],"default_left":[0,0,0,0,0,0,0,0,0,0,0,0,0,0,0,0,0,0,0,0,0,0,0,0,0,0,0,0,0,0,0],"id":31,"left_children":[1,3,5,7,9,11,13,15,17,19,21,23,25,27,29,-1,-1,-1,-1,-1,-1,-1,-1,-1,-1,-1,-1,-1,-1,-1,-1],"loss_changes":[5.0227923E0,7.5586963E0,1.0554402E1,9.335135E0,1.4913157E1,1.0842117E1,1.3139821E1,1.1584551E1,8.642188E0,9.033132E0,1.1438525E1,5.4894853E0,2.6668224E0,1.4346953E1,8.539534E0,0E0,0E0,0E0,0E0,0E0,0E0,0E0,0E0,0E0,0E0,0E0,0E0,0E0,0E0,0E0,0E0],"parents":[2147483647,0,0,1,1,2,2,3,3,4,4,5,5,6,6,7,7,8,8,9,9,10,10,11,11,12,12,13,13,14,14],"right_children":[2,4,6,8,10,12,14,16,18,20,22,24,26,28,30,-1,-1,-1,-1,-1,-1,-1,-1,-1,-1,-1,-1,-1,-1,-1,-1],"split_conditions":[6.606447E1,6.6938263E-1,1.2471138E0,7.294717E-1,-6.5487367E-1,1.648E1,2.322E3,3.4327227E-1,5.080501E1,8.88E2,1E0,1.1E1,1.2055373E0,3.2653267E0,9.540941E-2,-4.006156E-4,-2.050399E-2,3.7254352E-2,-1.6147902E-2,-5.38598E-2,2.8959799E-4,3.276777E-2,6.432034E-3,1.7245522E-2,-2.1562219E-2,5.100469E-2,-1.277626E-2,2.0402586E-2,-2.100772E-2,-3.5595383E-2,2.5705606E-2],"split_indices":[0,1,1,2,3,20,16,2,0,16,11,19,2,2,6,0,0,0,0,0,0,0,0,0,0,0,0,0,0,0,0],"split_type":[0,0,0,0,0,0,0,0,0,0,0,0,0,0,0,0,0,0,0,0,0,0,0,0,0,0,0,0,0,0,0],"sum_hessian":[1.0715912E3,8.7261804E2,1.9897314E2,5.173248E2,3.5529318E2,5.0791107E1,1.4818204E2,4.819214E2,3.5403435E1,2.9808847E1,3.2548434E2,3.466367E1,1.6127436E1,8.1665726E1,6.651631E1,3.9538626E2,8.653513E1,2.5453087E1,9.950348E0,1.3988787E1,1.582006E1,4.7596615E1,2.7788773E2,1.6047026E1,1.8616646E1,1.4693011E1,1.4344242E0,4.0719906E1,4.094582E1,6.0971016E1,5.545297E0],"tree_param":{"num_deleted":"0","num_feature":"22","num_nodes":"31","size_leaf_vector":"1"}},{"base_weights":[2.4353978E-4,2.7059337E-1,-1.6616937E-2,1.9451935E-2,6.064691E-1,-1.5172681E-1,4.599925E-2,-9.3251795E-2,5.0753385E-2,9.3471974E-1,-1.05586134E-1,8.678204E-1,-1.9163065E-1,-2.833911E-1,8.017855E-2,3.024412E-3,-3.784279E-2,1.8918686E-2,5.6943327E-2,8.675761E-3,-5.4534983E-2,5.164088E-2,-1.0530235E-2,-5.414149E-3,-3.917056E-2,2.6259461E-2,-2.0183327E-2,-1.6167307E-2,5.488401E-3],"categories":[],"categories_nodes":[],"categories_segments":[],"categories_sizes":[],"default_left":[0,0,0,0,0,0,0,0,0,0,0,0,0,0,0,0,0,0,0,0,0,0,0,0,0,0,0,0,0],"id":32,"left_children":[1,3,5,7,9,11,13,15,-1,17,19,21,23,25,27,-1,-1,-1,-1,-1,-1,-1,-1,-1,-1,-1,-1,-1,-1],"loss_changes":[4.8921466E0,5.302796E0,8.553889E0,4.255699E0,6.3912296E0,1.3191844E1,7.8033586E0,3.5377786E0,0E0,1.6734982E0,2.7718968E0,2.3954277E0,1.5152452E1,6.551991E0,7.52084E0,0E0,0E0,0E0,0E0,0E0,0E0,0E0,0E0,0E0,0E0,0E0,0E0,0E0,0E0],"parents":[2147483647,0,0,1,1,2,2,3,3,4,4,5,5,6,6,7,7,9,9,10,10,11,11,12,12,13,13,14,14],"right_children":[2,4,6,8,10,12,14,16,-1,18,20,22,24,26,28,-1,-1,-1,-1,-1,-1,-1,-1,-1,-1,-1,-1,-1,-1],"split_conditions":[3.6088543E1,2.8E1,-1.2010637E-1,3.5669582E1,4.364E1,1.021977E0,2E0,2.4E1,5.0753385E-2,-2.449202E0,3.4445263E1,6.425E3,-1.694919E-1,9.37E2,-2.0818512E0,3.024412E-3,-3.784279E-2,1.8918686E-2,5.6943327E-2,8.675761E-3,-5.4534983E-2,5.164088E-2,-1.0530235E-2,-5.414149E-3,-3.917056E-2,2.6259461E-2,-2.0183327E-2,-1.6167307E-2,5.488401E-3],"split_indices":[0,20,3,0,20,8,19,19,0,3,0,16,3,16,2,0,0,0,0,0,0,0,0,0,0,0,0,0,0],"split_type":[0,0,0,0,0,0,0,0,0,0,0,0,0,0,0,0,0,0,0,0,0,0,0,0,0,0,0,0,0],"sum_hessian":[1.07127E3,6.2004704E1,1.0092653E3,3.6082764E1,2.592194E1,3.1916498E2,6.9010034E2,3.3227722E1,2.8550417E0,1.7528679E1,8.39326E0,1.1239777E1,3.079252E2,6.419111E1,6.2590924E2,2.7715582E1,5.512141E0,5.471379E0,1.2057301E1,7.182254E0,1.2110058E0,9.784981E0,1.4547954E0,2.7094736E2,3.6977848E1,7.8760343E0,5.631507E1,4.208259E1,5.8382666E2],"tree_param":{"num_deleted":"0","num_feature":"22","num_nodes":"29","size_leaf_vector":"1"}},{"base_weights":[2.8642657E-4,5.2401894E-1,-8.149102E-3,8.903774E-1,1.6464759E-3,-2.3225915E-1,1.787747E-2,-1.2607147E-2,1.0501552E0,7.9053813E-1,-8.402E-1,-3.9726555E-1,1.521239E-1,6.2302813E-2,-1.6929957E-1,1.3464476E-2,5.60798E-2,4.6204735E-2,8.247919E-3,-6.231897E-2,1.2497586E-2,3.1918235E-2,-2.563036E-2,-1.3805764E-2,4.0549982E-2,8.713688E-3,-4.0195864E-3,1.1689322E-2,-1.63208E-2],"categories":[],"categories_nodes":[],"categories_segments":[],"categories_sizes":[],"default_left":[0,0,0,0,0,0,0,0,0,0,0,0,0,0,0,0,0,0,0,0,0,0,0,0,0,0,0,0,0],"id":33,"left_children":[1,3,5,7,9,11,13,-1,15,17,19,21,23,25,27,-1,-1,-1,-1,-1,-1,-1,-1,-1,-1,-1,-1,-1,-1],"loss_changes":[4.7400007E0,3.2532E0,6.1631393E0,2.0892296E0,5.9854913E0,7.03341E0,7.885075E0,0E0,1.9789696E-1,2.3620129E-1,2.2425334E0,9.548457E0,9.74469E0,1.2253912E1,1.159733E1,0E0,0E0,0E0,0E0,0E0,0E0,0E0,0E0,0E0,0E0,0E0,0E0,0E0,0E0],"parents":[2147483647,0,0,1,1,2,2,3,3,4,4,5,5,6,6,8,8,9,9,10,10,11,11,12,12,13,13,14,14],"right_children":[2,4,6,8,10,12,14,-1,16,18,20,22,24,26,28,-1,-1,-1,-1,-1,-1,-1,-1,-1,-1,-1,-1,-1,-1],"split_conditions":[9.2E1,6.1425457E0,7.58E2,-7.0852274E-1,6.8524284E1,2.1E1,6.606447E1,-1.2607147E-2,5.3E-1,1.44E1,6.736651E-1,3.7109238E1,-3.9539017E-2,4.094E3,1.2471138E0,1.3464476E-2,5.60798E-2,4.6204735E-2,8.247919E-3,-6.231897E-2,1.2497586E-2,3.1918235E-2,-2.563036E-2,-1.3805764E-2,4.0549982E-2,8.713688E-3,-4.0195864E-3,1.1689322E-2,-1.63208E-2],"split_indices":[16,2,16,3,0,19,0,0,13,20,3,0,3,16,1,0,0,0,0,0,0,0,0,0,0,0,0,0,0],"split_type":[0,0,0,0,0,0,0,0,0,0,0,0,0,0,0,0,0,0,0,0,0,0,0,0,0,0,0,0,0],"sum_hessian":[1.0709268E3,1.6006691E1,1.05492E3,8.994229E0,7.012462E0,1.0893935E2,9.4598065E2,1.0325688E0,7.961661E0,3.651552E0,3.3609102E0,7.61965E1,3.2742844E1,7.650644E2,1.8091629E2,1.0671248E0,6.894536E0,2.6158965E0,1.0356554E0,2.3441834E0,1.0167269E0,7.181418E0,6.901508E1,2.0196785E1,1.2546059E1,4.28558E2,3.3650638E2,5.060358E1,1.303127E2],"tree_param":{"num_deleted":"0","num_feature":"22","num_nodes":"29","size_leaf_vector":"1"}},{"base_weights":[3.8138925E-4,-1.1506478E-2,3.5475543E-1,1.040306E-2,-2.603007E-1,9.8672384E-1,4.8844177E-2,1.9952701E-2,-6.165304E-1,2.7151746E-1,-4.6640113E-1,1.1383016E0,-1.4164306E-2,6.909394E-1,-3.8035712E-1,5.4181525E-3,-2.1559347E-3,1.3906601E-2,-4.7845546E-2,-7.0437625E-2,2.9892722E-2,-1.2083871E-2,-5.4097828E-2,1.8009868E-2,6.0393926E-2,4.4108402E-2,-4.690309E-3,-6.084442E-2,3.097692E-4],"categories":[],"categories_nodes":[],"categories_segments":[],"categories_sizes":[],"default_left":[0,0,0,0,0,0,0,0,0,0,0,0,0,0,0,0,0,0,0,0,0,0,0,0,0,0,0,0,0],"id":34,"left_children":[1,3,5,7,9,11,13,15,17,19,21,23,-1,25,27,-1,-1,-1,-1,-1,-1,-1,-1,-1,-1,-1,-1,-1,-1],"loss_changes":[4.5171933E0,5.658058E0,6.680105E0,5.7268004E0,9.334643E0,2.4977121E0,7.0155835E0,5.25259E0,4.6367693E0,1.4054682E1,8.164596E0,1.2222862E-1,0E0,1.60921E0,4.9650984E0,0E0,0E0,0E0,0E0,0E0,0E0,0E0,0E0,0E0,0E0,0E0,0E0,0E0,0E0],"parents":[2147483647,0,0,1,1,2,2,3,3,4,4,5,5,6,6,7,7,8,8,9,9,10,10,11,11,13,13,14,14],"right_children":[2,4,6,8,10,12,14,16,18,20,22,24,-1,26,28,-1,-1,-1,-1,-1,-1,-1,-1,-1,-1,-1,-1,-1,-1],"split_conditions":[6.4E-1,2.8E1,2.908442E0,5.495142E0,1E0,2.101E1,7.896699E-1,2.912E3,1.72E1,2.8E-1,1.6965404E0,-2.9453006E0,-1.4164306E-2,7.6E-1,4.438693E0,5.4181525E-3,-2.1559347E-3,1.3906601E-2,-4.7845546E-2,-7.0437625E-2,2.9892722E-2,-1.2083871E-2,-5.4097828E-2,1.8009868E-2,6.0393926E-2,4.4108402E-2,-4.690309E-3,-6.084442E-2,3.097692E-4],"split_indices":[13,19,2,2,11,20,7,16,20,13,2,1,0,13,1,0,0,0,0,0,0,0,0,0,0,0,0,0,0],"split_type":[0,0,0,0,0,0,0,0,0,0,0,0,0,0,0,0,0,0,0,0,0,0,0,0,0,0,0,0,0],"sum_hessian":[1.0702977E3,1.0364949E3,3.3802834E1,9.5348627E2,8.3008575E1,1.0299673E1,2.350316E1,9.4013403E2,1.3352232E1,2.309562E1,5.991296E1,9.294112E0,1.0055609E0,9.171923E0,1.4331238E1,3.9113806E2,5.4899603E2,3.7303054E0,9.621926E0,3.2166438E0,1.9878975E1,4.491005E1,1.5002908E1,1.2698523E0,8.0242605E0,7.274991E0,1.8969312E0,3.8504636E0,1.0480774E1],"tree_param":{"num_deleted":"0","num_feature":"22","num_nodes":"29","size_leaf_vector":"1"}},{"base_weights":[2.904307E-4,5.005928E-1,-7.921592E-3,6.079957E-2,1.9609773E-1,-1.0740269E-1,4.4771012E-2,6.9389147E-1,-1.001124E0,7.5341684E-1,-1.3894781E-1,-2.670812E-1,7.722441E-2,4.9712084E-2,-1.7905407E-2,-6.3586764E-2,-1.2626345E-2,5.0159752E-2,-1.2091938E-2,-3.3936356E-3,-3.541419E-2,5.8962863E-2,-1.6522702E-2,-1.5534545E-2,5.287034E-3],"categories":[],"categories_nodes":[],"categories_segments":[],"categories_sizes":[],"default_left":[0,0,0,0,0,0,0,0,0,0,0,0,0,0,0,0,0,0,0,0,0,0,0,0,0],"id":35,"left_children":[1,3,5,-1,7,9,11,13,15,17,19,21,23,-1,-1,-1,-1,-1,-1,-1,-1,-1,-1,-1,-1],"loss_changes":[4.403169E0,3.5316877E0,5.5321527E0,0E0,8.640361E0,1.0027397E1,7.0042458E0,3.5181103E0,5.5497265E-1,3.4925032E0,1.4250113E1,6.3718204E0,6.955062E0,0E0,0E0,0E0,0E0,0E0,0E0,0E0,0E0,0E0,0E0,0E0,0E0],"parents":[2147483647,0,0,1,1,2,2,4,4,5,5,6,6,7,7,8,8,9,9,10,10,11,11,12,12],"right_children":[2,4,6,-1,8,10,12,14,16,18,20,22,24,-1,-1,-1,-1,-1,-1,-1,-1,-1,-1,-1,-1],"split_conditions":[2.9535547E1,8.2569376E-2,-1.2010637E-1,6.079957E-2,-2.1644735E0,1.021977E0,2E0,5.093E1,-1.592687E0,6.425E3,-1.694919E-1,-2.0146246E0,-2.0818512E0,4.9712084E-2,-1.7905407E-2,-6.3586764E-2,-1.2626345E-2,5.0159752E-2,-1.2091938E-2,-3.3936356E-3,-3.541419E-2,5.8962863E-2,-1.6522702E-2,-1.5534545E-2,5.287034E-3],"split_indices":[0,6,3,0,1,8,19,20,1,16,3,1,2,0,0,0,0,0,0,0,0,0,0,0,0],"split_type":[0,0,0,0,0,0,0,0,0,0,0,0,0,0,0,0,0,0,0,0,0,0,0,0,0],"sum_hessian":[1.0697579E3,1.6307297E1,1.0534507E3,3.97492E0,1.23323765E1,3.6441476E2,6.890359E2,9.00754E0,3.3248367E0,1.2073131E1,3.5234164E2,6.426537E1,6.247705E2,7.0497193E0,1.9578208E0,1.9287761E0,1.3960607E0,9.644647E0,2.4284837E0,3.142325E2,3.810913E1,1.9585164E0,6.2306854E1,4.2105232E1,5.826653E2],"tree_param":{"num_deleted":"0","num_feature":"22","num_nodes":"25","size_leaf_vector":"1"}},{"base_weights":[3.360063E-4,2.5321773E-1,-1.5327655E-2,-3.101273E-2,5.2959085E-1,-3.6908147E-1,7.06726E-3,2.3174185E-1,-6.9001704E-1,7.602056E-1,-1.02881104E-1,-8.240083E-1,-3.0161857E-3,1.414587E-1,-3.668276E-2,5.6437235E-2,2.1510338E-3,-4.93901E-2,3.958442E-2,1.8541783E-2,5.5686336E-2,-2.5011634E-2,2.7200524E-2,1.737582E-2,-4.9541682E-2,-4.046044E-2,1.7684093E-2,4.9711703E-3,5.937757E-2,-6.9142394E-2,-6.743164E-4],"categories":[],"categories_nodes":[],"categories_segments":[],"categories_sizes":[],"default_left":[0,0,0,0,0,0,0,0,0,0,0,0,0,0,0,0,0,0,0,0,0,0,0,0,0,0,0,0,0,0,0],"id":36,"left_children":[1,3,5,7,9,11,13,15,17,19,21,23,25,27,29,-1,-1,-1,-1,-1,-1,-1,-1,-1,-1,-1,-1,-1,-1,-1,-1],"loss_changes":[4.2437906E0,4.9253297E0,7.995468E0,5.658021E0,4.70755E0,1.0003906E1,5.5897875E0,3.9210782E0,4.8866367E0,2.8049107E0,2.6784015E0,5.5797424E0,1.0149399E1,1.014844E1,2.2381413E1,0E0,0E0,0E0,0E0,0E0,0E0,0E0,0E0,0E0,0E0,0E0,0E0,0E0,0E0,0E0,0E0],"parents":[2147483647,0,0,1,1,2,2,3,3,4,4,5,5,6,6,7,7,8,8,9,9,10,10,11,11,12,12,13,13,14,14],"right_children":[2,4,6,8,10,12,14,16,18,20,22,24,26,28,30,-1,-1,-1,-1,-1,-1,-1,-1,-1,-1,-1,-1,-1,-1,-1,-1],"split_conditions":[3.6088543E1,2.608E1,-8.0145097E-1,8.2569376E-2,4.364E1,1.1E1,1.862E3,2.9535547E1,1.1590816E-1,-9.52914E-1,6.9700636E-2,5.6261312E-2,2.8E-1,1.807E3,1.965E3,5.6437235E-2,2.1510338E-3,-4.93901E-2,3.958442E-2,1.8541783E-2,5.5686336E-2,-2.5011634E-2,2.7200524E-2,1.737582E-2,-4.9541682E-2,-4.046044E-2,1.7684093E-2,4.9711703E-3,5.937757E-2,-6.9142394E-2,-6.743164E-4],"split_indices":[0,20,3,6,20,19,16,0,6,3,7,7,13,16,16,0,0,0,0,0,0,0,0,0,0,0,0,0,0,0,0],"split_type":[0,0,0,0,0,0,0,0,0,0,0,0,0,0,0,0,0,0,0,0,0,0,0,0,0,0,0,0,0,0,0],"sum_hessian":[1.0693994E3,6.149112E1,1.00790826E3,3.0752308E1,3.0738813E1,5.9086555E1,9.488217E2,2.2449652E1,8.302656E0,2.2377476E1,8.361337E0,2.5787815E1,3.329874E1,2.32474E2,7.163477E2,3.0364077E0,1.9413244E1,7.1908193E0,1.1118366E0,1.1623868E1,1.0753609E1,5.320156E0,3.0411801E0,3.0794413E0,2.2708374E1,9.824728E0,2.3474012E1,2.2454607E2,7.927926E0,1.1141731E1,7.0520593E2],"tree_param":{"num_deleted":"0","num_feature":"22","num_nodes":"31","size_leaf_vector":"1"}},{"base_weights":[4.0111167E-4,3.0758072E-2,-1.3198592E-1,9.231658E-2,-9.152194E-2,2.2273596E-1,-2.5332797E-1,-1.7709365E-1,1.5326571E-1,-6.7351615E-1,-1.4193794E-2,-8.264526E-2,8.526689E-1,-3.2874933E-3,-5.5205655E-1,-1.616686E-3,-3.0695692E-2,5.8057946E-3,3.2129582E-2,1.0340606E-2,-5.6364287E-2,3.3537492E-2,-4.666403E-3,1.6223138E-2,-2.1497566E-2,5.1958233E-2,6.5204554E-4,1.9706646E-2,-1.9867359E-2,-3.6800083E-2,3.908385E-3],"categories":[],"categories_nodes":[],"categories_segments":[],"categories_sizes":[],"default_left":[0,0,0,0,0,0,0,0,0,0,0,0,0,0,0,0,0,0,0,0,0,0,0,0,0,0,0,0,0,0,0],"id":37,"left_children":[1,3,5,7,9,11,13,15,17,19,21,23,25,27,29,-1,-1,-1,-1,-1,-1,-1,-1,-1,-1,-1,-1,-1,-1,-1,-1],"loss_changes":[4.304334E0,6.566594E0,8.655586E0,9.550957E0,1.3142453E1,9.968626E0,1.1152156E1,6.775943E0,8.533411E0,1.39161825E1,1.4100191E1,5.16818E0,2.630906E0,1.3044542E1,7.944462E0,0E0,0E0,0E0,0E0,0E0,0E0,0E0,0E0,0E0,0E0,0E0,0E0,0E0,0E0,0E0,0E0],"parents":[2147483647,0,0,1,1,2,2,3,3,4,4,5,5,6,6,7,7,8,8,9,9,10,10,11,11,12,12,13,13,14,14],"right_children":[2,4,6,8,10,12,14,16,18,20,22,24,26,28,30,-1,-1,-1,-1,-1,-1,-1,-1,-1,-1,-1,-1,-1,-1,-1,-1],"split_conditions":[6.606447E1,4.453E3,1.2471138E0,7.58E2,4.655E3,1.648E1,2.322E3,6.04E2,9.20796E-1,-7.66939E-1,4.912E3,1.1E1,2.5E1,3.2653267E0,7.645216E-2,-1.616686E-3,-3.0695692E-2,5.8057946E-3,3.2129582E-2,1.0340606E-2,-5.6364287E-2,3.3537492E-2,-4.666403E-3,1.6223138E-2,-2.1497566E-2,5.1958233E-2,6.5204554E-4,1.9706646E-2,-1.9867359E-2,-3.6800083E-2,3.908385E-3],"split_indices":[0,16,1,16,16,20,16,16,7,2,16,19,19,2,6,0,0,0,0,0,0,0,0,0,0,0,0,0,0,0,0],"split_type":[0,0,0,0,0,0,0,0,0,0,0,0,0,0,0,0,0,0,0,0,0,0,0,0,0,0,0,0,0,0,0],"sum_hessian":[1.0690215E3,8.702392E2,1.9878223E2,5.790018E2,2.912375E2,5.0453827E1,1.483284E2,1.0647044E2,4.725313E2,3.3253334E1,2.5798413E2,3.4565727E1,1.58881E1,8.129457E1,6.703382E1,8.077579E1,2.5694656E1,4.4033795E2,3.2193344E1,1.1495639E1,2.1757696E1,2.5944696E1,2.3203944E2,1.5943141E1,1.8622587E1,1.2806015E1,3.0820847E0,4.04746E1,4.0819973E1,5.1758965E1,1.52748575E1],"tree_param":{"num_deleted":"0","num_feature":"22","num_nodes":"31","size_leaf_vector":"1"}},{"base_weights":[4.1457993E-4,5.065002E-1,-7.5608427E-3,8.696371E-1,-4.349048E-3,-5.717003E-1,1.9174358E-3,-1.12924855E-2,1.0283438E0,7.6550305E-1,-8.02147E-1,-1.0774829E0,4.060921E-1,3.558256E-2,-1.4982703E-1,1.3288065E-2,5.5008113E-2,4.490391E-2,7.920584E-3,-5.993556E-2,1.2603176E-2,-5.8214967E-3,-5.8895476E-2,-2.4808507E-2,3.4544405E-2,5.021076E-3,-4.2839316E-3,1.0662685E-2,-1.4173659E-2],"categories":[],"categories_nodes":[],"categories_segments":[],"categories_sizes":[],"default_left":[0,0,0,0,0,0,0,0,0,0,0,0,0,0,0,0,0,0,0,0,0,0,0,0,0,0,0,0,0],"id":38,"left_children":[1,3,5,7,9,11,13,-1,15,17,19,21,23,25,27,-1,-1,-1,-1,-1,-1,-1,-1,-1,-1,-1,-1,-1,-1],"loss_changes":[4.320532E0,3.084566E0,5.63625E0,1.9207916E0,5.4632077E0,9.051277E0,5.3051896E0,0E0,1.8207645E-1,2.2230697E-1,2.1272311E0,9.972067E-1,2.0552344E0,6.690857E0,9.210449E0,0E0,0E0,0E0,0E0,0E0,0E0,0E0,0E0,0E0,0E0,0E0,0E0,0E0,0E0],"parents":[2147483647,0,0,1,1,2,2,3,3,4,4,5,5,6,6,8,8,9,9,10,10,11,11,12,12,13,13,14,14],"right_children":[2,4,6,8,10,12,14,-1,16,18,20,22,24,26,28,-1,-1,-1,-1,-1,-1,-1,-1,-1,-1,-1,-1,-1,-1],"split_conditions":[9.2E1,6.1425457E0,1.94E2,-7.0852274E-1,6.8524284E1,5.6200072E-2,6.606447E1,-1.12924855E-2,5.3E-1,1.44E1,6.736651E-1,-1.6614467E0,-1.7538099E0,4.426E3,1.2471138E0,1.3288065E-2,5.5008113E-2,4.490391E-2,7.920584E-3,-5.993556E-2,1.2603176E-2,-5.8214967E-3,-5.8895476E-2,-2.4808507E-2,3.4544405E-2,5.021076E-3,-4.2839316E-3,1.0662685E-2,-1.4173659E-2],"split_indices":[16,2,16,3,0,6,0,0,13,20,3,3,3,16,1,0,0,0,0,0,0,0,0,0,0,0,0,0,0],"split_type":[0,0,0,0,0,0,0,0,0,0,0,0,0,0,0,0,0,0,0,0,0,0,0,0,0,0,0,0,0],"sum_hessian":[1.0684841E3,1.5607267E1,1.0528768E3,8.712007E0,6.8952603E0,1.6417273E1,1.0364596E3,1.0488902E0,7.6631165E0,3.5296905E0,3.36557E0,1.0753075E1,5.6641974E0,8.488944E2,1.8756516E2,1.0641559E0,6.5989604E0,2.503639E0,1.0260516E0,2.3460007E0,1.0195693E0,1.2216438E0,9.53143E0,1.1808742E0,4.4833236E0,5.5324396E2,2.9565045E2,5.03048E1,1.3726035E2],"tree_param":{"num_deleted":"0","num_feature":"22","num_nodes":"29","size_leaf_vector":"1"}},{"base_weights":[4.0823888E-4,1.817939E-1,-2.10919E-2,8.3302695E-1,4.021039E-2,-2.9105687E-1,2.1317657E-2,1.0874511E0,1.79903E-1,-5.5501405E-2,1.1418886E0,-4.578579E-1,1.7781942E-1,6.064024E-2,-2.450129E-1,5.974694E-2,1.6907378E-3,-3.2318648E-2,4.3077745E-2,-4.6353903E-2,3.6720706E-3,6.7577414E-2,6.8211737E-3,-3.268698E-2,-7.97336E-3,3.9177082E-2,-1.9869799E-2,1.387468E-2,1.9548855E-4,-2.8558737E-2,-3.4021623E-3],"categories":[],"categories_nodes":[],"categories_segments":[],"categories_sizes":[],"default_left":[0,0,0,0,0,0,0,0,0,0,0,0,0,0,0,0,0,0,0,0,0,0,0,0,0,0,0,0,0,0,0],"id":39,"left_children":[1,3,5,7,9,11,13,15,17,19,21,23,25,27,29,-1,-1,-1,-1,-1,-1,-1,-1,-1,-1,-1,-1,-1,-1,-1,-1],"loss_changes":[4.171947E0,1.0419296E1,1.0956471E1,3.160101E0,9.993166E0,1.0242194E1,8.681237E0,1.583065E0,4.420443E0,9.912631E0,1.4122238E0,5.5131626E0,1.2440128E1,8.879301E0,6.1175566E0,0E0,0E0,0E0,0E0,0E0,0E0,0E0,0E0,0E0,0E0,0E0,0E0,0E0,0E0,0E0,0E0],"parents":[2147483647,0,0,1,1,2,2,3,3,4,4,5,5,6,6,7,7,8,8,9,9,10,10,11,11,12,12,13,13,14,14],"right_children":[2,4,6,8,10,12,14,16,18,20,22,24,26,28,30,-1,-1,-1,-1,-1,-1,-1,-1,-1,-1,-1,-1,-1,-1,-1,-1],"split_conditions":[1.021977E0,6.164613E-1,1.1861458E0,6.425E3,6.9452114E-2,1.863E1,5.447E3,2.008E1,6.475E3,2E0,7.293978E1,4.8154134E-2,4.912E3,1.4412249E0,-2.3258819E-1,5.974694E-2,1.6907378E-3,-3.2318648E-2,4.3077745E-2,-4.6353903E-2,3.6720706E-3,6.7577414E-2,6.8211737E-3,-3.268698E-2,-7.97336E-3,3.9177082E-2,-1.9869799E-2,1.387468E-2,1.9548855E-4,-2.8558737E-2,-3.4021623E-3],"split_indices":[8,7,8,16,6,20,16,20,16,19,0,6,16,8,3,0,0,0,0,0,0,0,0,0,0,0,0,0,0,0,0],"split_type":[0,0,0,0,0,0,0,0,0,0,0,0,0,0,0,0,0,0,0,0,0,0,0,0,0,0,0,0,0,0,0],"sum_hessian":[1.067797E3,1.1236611E2,9.5543085E2,1.9194536E1,9.317158E1,1.2891817E2,8.265127E2,1.3334922E1,5.8596144E0,8.659775E1,6.5738335E0,9.510751E1,3.3810654E1,7.2085394E2,1.0565873E2,1.19787855E1,1.3561358E0,2.6722076E0,3.1874068E0,1.0362638E1,7.623511E1,5.15476E0,1.4190732E0,5.669718E1,3.841033E1,1.629221E1,1.7518444E1,1.4866968E2,5.7218427E2,3.6380516E1,6.927821E1],"tree_param":{"num_deleted":"0","num_feature":"22","num_nodes":"31","size_leaf_vector":"1"}},{"base_weights":[4.6794536E-4,2.527115E-1,-1.5094329E-2,1.575692E-2,5.7293224E-1,-3.5437262E-1,6.402047E-3,-9.433167E-2,4.9483623E-2,9.6426636E-1,4.7291685E-2,2.4103223E-1,-6.0152274E-1,1.5291668E-1,-3.117628E-2,2.6553243E-3,-3.6241394E-2,5.301515E-2,-1.2247196E-3,1.8560395E-2,-4.3264855E-2,3.7819058E-2,-2.6878998E-2,2.8837541E-2,-3.5036642E-2,2.9611334E-3,5.633933E-2,-9.5174335E-2,-9.993588E-4],"categories":[],"categories_nodes":[],"categories_segments":[],"categories_sizes":[],"default_left":[0,0,0,0,0,0,0,0,0,0,0,0,0,0,0,0,0,0,0,0,0,0,0,0,0,0,0,0,0],"id":40,"left_children":[1,3,5,7,9,11,13,15,-1,17,19,21,23,25,27,-1,-1,-1,-1,-1,-1,-1,-1,-1,-1,-1,-1,-1,-1],"loss_changes":[4.196484E0,4.704643E0,7.346155E0,4.0315523E0,5.3830166E0,8.976505E0,5.2238407E0,3.191087E0,0E0,1.4575977E0,3.9613373E0,7.7570305E0,5.3952684E0,1.760455E1,1.578426E1,0E0,0E0,0E0,0E0,0E0,0E0,0E0,0E0,0E0,0E0,0E0,0E0,0E0,0E0],"parents":[2147483647,0,0,1,1,2,2,3,3,4,4,5,5,6,6,7,7,9,9,10,10,11,11,12,12,13,13,14,14],"right_children":[2,4,6,8,10,12,14,16,-1,18,20,22,24,26,28,-1,-1,-1,-1,-1,-1,-1,-1,-1,-1,-1,-1,-1,-1],"split_conditions":[3.6088543E1,2.8E1,-8.0145097E-1,3.5669582E1,3.682E1,1.3254295E-1,1.58E3,2.4E1,4.9483623E-2,9.886565E0,5.4240074E0,3.4359637E-1,1.68E2,1.476E3,1.604E3,2.6553243E-3,-3.6241394E-2,5.301515E-2,-1.2247196E-3,1.8560395E-2,-4.3264855E-2,3.7819058E-2,-2.6878998E-2,2.8837541E-2,-3.5036642E-2,2.9611334E-3,5.633933E-2,-9.5174335E-2,-9.993588E-4],"split_indices":[0,20,3,0,20,7,16,19,0,8,8,1,16,16,16,0,0,0,0,0,0,0,0,0,0,0,0,0,0],"split_type":[0,0,0,0,0,0,0,0,0,0,0,0,0,0,0,0,0,0,0,0,0,0,0,0,0,0,0,0,0],"sum_hessian":[1.0670643E3,6.1121883E1,1.00594244E3,3.573107E1,2.5390812E1,5.901534E1,9.4692706E2,3.2913742E1,2.8173318E0,1.4076523E1,1.1314289E1,1.7318472E1,4.169687E1,1.9266676E2,7.542603E2,2.7417967E1,5.4957743E0,1.2764384E1,1.3121386E0,8.788218E0,2.5260725E0,1.0438184E1,6.880288E0,2.8643885E0,3.8832478E1,1.767252E2,1.5941557E1,3.4760823E0,7.5078424E2],"tree_param":{"num_deleted":"0","num_feature":"22","num_nodes":"29","size_leaf_vector":"1"}},{"base_weights":[4.770499E-4,4.9004808E-1,-7.0959157E-3,8.484403E-1,-8.255038E-3,1.3076208E-2,-2.5368112E-1,-1.1527444E-2,1.0097417E0,7.474681E-1,-7.765307E-1,3.4789238E-2,-2.305669E-1,-9.643409E-2,-1.4262095E-1,5.461166E-2,1.4252931E-2,4.3986022E-2,7.6648346E-3,-5.802336E-2,1.2340858E-2,8.13864E-3,-1.6266858E-3,-3.2361795E-3,-5.4024525E-2,-2.141055E-2,1.9901684E-2],"categories":[],"categories_nodes":[],"categories_segments":[],"categories_sizes":[],"default_left":[0,0,0,0,0,0,0,0,0,0,0,0,0,0,0,0,0,0,0,0,0,0,0,0,0,0,0],"id":41,"left_children":[1,3,5,7,9,11,13,-1,15,17,19,21,23,-1,25,-1,-1,-1,-1,-1,-1,-1,-1,-1,-1,-1,-1],"loss_changes":[3.9621792E0,2.9142911E0,5.2384796E0,1.8824754E0,5.1095424E0,5.159846E0,1.4539446E1,0E0,1.927042E-1,2.1419692E-1,1.9989531E0,7.7170053E0,1.1180508E1,0E0,1.1868947E1,0E0,0E0,0E0,0E0,0E0,0E0,0E0,0E0,0E0,0E0,0E0,0E0],"parents":[2147483647,0,0,1,1,2,2,3,3,4,4,5,5,6,6,8,8,9,9,10,10,11,11,12,12,14,14],"right_children":[2,4,6,8,10,12,14,-1,16,18,20,22,24,-1,26,-1,-1,-1,-1,-1,-1,-1,-1,-1,-1,-1,-1],"split_conditions":[9.2E1,6.1425457E0,3.3739386E0,-7.0852274E-1,6.8524284E1,2.8E1,2.3657098E0,-1.1527444E-2,2.3E1,1.44E1,7.4118904E1,2.655E3,1.6035608E0,-9.643409E-2,1.146E3,5.461166E-2,1.4252931E-2,4.3986022E-2,7.6648346E-3,-5.802336E-2,1.2340858E-2,8.13864E-3,-1.6266858E-3,-3.2361795E-3,-5.4024525E-2,-2.141055E-2,1.9901684E-2],"split_indices":[16,2,2,3,0,19,8,0,19,20,0,16,2,0,16,0,0,0,0,0,0,0,0,0,0,0,0],"split_type":[0,0,0,0,0,0,0,0,0,0,0,0,0,0,0,0,0,0,0,0,0,0,0,0,0,0,0],"sum_hessian":[1.0667537E3,1.5279304E1,1.0514744E3,8.478612E0,6.8006916E0,9.728375E2,7.863688E1,1.0468223E0,7.4317894E0,3.4420063E0,3.3586853E0,8.940212E2,7.881633E1,3.8720982E0,7.476478E1,6.216922E0,1.2148677E0,2.4222677E0,1.0197387E0,2.3449306E0,1.0137547E0,3.0768405E2,5.863371E2,6.684851E1,1.1967819E1,4.905855E1,2.5706228E1],"tree_param":{"num_deleted":"0","num_feature":"22","num_nodes":"27","size_leaf_vector":"1"}},{"base_weights":[3.8916618E-4,1.7657954E-1,-2.0462302E-2,8.0653E-1,4.0909234E-2,-2.580894E-1,2.278141E-2,1.0557293E0,1.7531751E-1,1.3985625E-1,-1.0078148E0,-4.1057813E-1,1.8513598E-1,9.464293E-1,8.427667E-3,5.8076855E-2,1.7251633E-3,-3.0898616E-2,4.1731026E-2,-3.6052693E-2,1.3593684E-2,-1.1952347E-2,-7.617779E-2,2.6857985E-2,-2.3778914E-2,2.7010715E-2,-2.85256E-2,5.987362E-2,-2.6834065E-2,2.1983662E-3,-1.1467141E-2],"categories":[],"categories_nodes":[],"categories_segments":[],"categories_sizes":[],"default_left":[0,0,0,0,0,0,0,0,0,0,0,0,0,0,0,0,0,0,0,0,0,0,0,0,0,0,0,0,0,0,0],"id":42,"left_children":[1,3,5,7,9,11,13,15,17,19,21,23,25,27,29,-1,-1,-1,-1,-1,-1,-1,-1,-1,-1,-1,-1,-1,-1,-1,-1],"loss_changes":[3.924533E0,9.628352E0,9.821536E0,2.9574442E0,9.901945E0,1.0021331E1,1.0718448E1,1.4861059E0,4.100512E0,1.0065131E1,2.8995686E0,7.019041E0,1.0599605E1,5.248951E0,6.750816E0,0E0,0E0,0E0,0E0,0E0,0E0,0E0,0E0,0E0,0E0,0E0,0E0,0E0,0E0,0E0,0E0],"parents":[2147483647,0,0,1,1,2,2,3,3,4,4,5,5,6,6,7,7,8,8,9,9,10,10,11,11,12,12,13,13,14,14],"right_children":[2,4,6,8,10,12,14,16,18,20,22,24,26,28,30,-1,-1,-1,-1,-1,-1,-1,-1,-1,-1,-1,-1,-1,-1,-1,-1],"split_conditions":[1.021977E0,6.164613E-1,1.2050902E0,6.425E3,6.398E3,1.863E1,1.053E1,2.008E1,6.475E3,2E0,7.9115346E-2,2.322E3,7.588831E-2,2.9E1,5.447E3,5.8076855E-2,1.7251633E-3,-3.0898616E-2,4.1731026E-2,-3.6052693E-2,1.3593684E-2,-1.1952347E-2,-7.617779E-2,2.6857985E-2,-2.3778914E-2,2.7010715E-2,-2.85256E-2,5.987362E-2,-2.6834065E-2,2.1983662E-3,-1.1467141E-2],"split_indices":[8,7,8,16,16,20,20,20,16,19,3,16,6,19,16,0,0,0,0,0,0,0,0,0,0,0,0,0,0,0,0],"split_type":[0,0,0,0,0,0,0,0,0,0,0,0,0,0,0,0,0,0,0,0,0,0,0,0,0,0,0,0,0,0,0],"sum_hessian":[1.0662572E3,1.12043724E2,9.542135E2,1.8978254E1,9.306547E1,1.4614865E2,8.080649E2,1.3124309E1,5.8539467E0,8.58337E1,7.2317615E0,1.0879285E2,3.7355797E1,1.1371705E1,7.966932E2,1.1767681E1,1.3566275E0,2.685443E0,3.1685038E0,1.0819025E1,7.501468E1,3.4912207E0,3.7405405E0,6.516387E0,1.0227646E2,2.5607807E1,1.1747989E1,9.890205E0,1.4815004E0,6.9380493E2,1.0288824E2],"tree_param":{"num_deleted":"0","num_feature":"22","num_nodes":"31","size_leaf_vector":"1"}},{"base_weights":[3.7641765E-4,1.22555485E-2,-3.0857536E-1,7.6205343E-1,5.123392E-3,8.5413533E-1,-4.985847E-1,9.4171107E-1,-2.870824E-3,-4.6120328E-1,1.7362507E-2,6.387385E-2,-2.198998E-2,-7.484454E-1,7.619323E-1,-6.4015375E-3,6.1568256E-2,-3.8056456E-2,3.3118673E-2,2.976488E-3,-6.4277896E-3,-5.1591802E-2,-1.3099252E-2,5.4736763E-2,-9.498765E-3],"categories":[],"categories_nodes":[],"categories_segments":[],"categories_sizes":[],"default_left":[0,0,0,0,0,0,0,0,0,0,0,0,0,0,0,0,0,0,0,0,0,0,0,0,0],"id":43,"left_children":[1,3,5,7,9,11,13,15,-1,17,19,-1,-1,21,23,-1,-1,-1,-1,-1,-1,-1,-1,-1,-1],"loss_changes":[3.9173832E0,5.49261E0,9.157103E0,1.478898E0,5.8247557E0,3.8046188E0,1.1468056E1,2.6350017E0,0E0,9.299823E0,6.124038E0,0E0,0E0,3.78018E0,2.1783257E0,0E0,0E0,0E0,0E0,0E0,0E0,0E0,0E0,0E0,0E0],"parents":[2147483647,0,0,1,1,2,2,3,3,4,4,5,5,6,6,7,7,9,9,10,10,13,13,14,14],"right_children":[2,4,6,8,10,12,14,16,-1,18,20,-1,-1,22,24,-1,-1,-1,-1,-1,-1,-1,-1,-1,-1],"split_conditions":[7.8325396E0,2.1E-1,3E0,3.2653267E0,2.8E-1,-3.4946196E0,2.3E1,5.27E2,-2.870824E-3,9.37E2,1E0,6.387385E-2,-2.198998E-2,9.052742E0,8.044896E-1,-6.4015375E-3,6.1568256E-2,-3.8056456E-2,3.3118673E-2,2.976488E-3,-6.4277896E-3,-5.1591802E-2,-1.3099252E-2,5.4736763E-2,-9.498765E-3],"split_indices":[8,13,19,2,13,1,19,16,0,16,12,0,0,8,7,0,0,0,0,0,0,0,0,0,0],"split_type":[0,0,0,0,0,0,0,0,0,0,0,0,0,0,0,0,0,0,0,0,0,0,0,0,0],"sum_hessian":[1.0653535E3,1.0268323E3,3.8521152E1,8.6779585E0,1.01815436E3,4.9199033E0,3.360125E1,6.9951878E0,1.6827711E0,2.5100716E1,9.9305365E2,3.7166362E0,1.2032671E0,2.8381655E1,5.2195954E0,1.6093969E0,5.385791E0,2.0066721E1,5.033995E0,7.708784E2,2.2217526E2,1.7225637E1,1.1156018E1,3.7562895E0,1.4633057E0],"tree_param":{"num_deleted":"0","num_feature":"22","num_nodes":"25","size_leaf_vector":"1"}},{"base_weights":[4.3155483E-4,4.6422672E-3,-8.610824E-1,6.060689E-1,-3.425729E-3,1.3041139E-2,-5.9951186E-2,4.1191854E-2,9.2253107E-1,-5.5608314E-1,5.782473E-3,2.2464043E-2,-4.4732373E-2,5.2729536E-2,1.1610887E-2,-5.184501E-2,1.884654E-2,3.1802945E-2,-1.0635502E-4],"categories":[],"categories_nodes":[],"categories_segments":[],"categories_sizes":[],"default_left":[0,0,0,0,0,0,0,0,0,0,0,0,0,0,0,0,0,0,0],"id":44,"left_children":[1,3,5,7,9,-1,-1,11,13,15,17,-1,-1,-1,-1,-1,-1,-1,-1],"loss_changes":[3.8716629E0,5.15518E0,2.2808602E0,2.4760022E0,5.341184E0,0E0,0E0,2.7302258E0,5.725508E-1,8.107253E0,5.1497173E0,0E0,0E0,0E0,0E0,0E0,0E0,0E0,0E0],"parents":[2147483647,0,0,1,1,2,2,3,3,4,4,7,7,8,8,9,9,10,10],"right_children":[2,4,6,8,10,-1,-1,12,14,16,18,-1,-1,-1,-1,-1,-1,-1,-1],"split_conditions":[7.4255056E0,9.2E1,7.129502E-2,4.8345726E-2,1.94E2,1.3041139E-2,-5.9951186E-2,4.2234275E-2,6.671006E0,5.6200072E-2,2.72E2,2.2464043E-2,-4.4732373E-2,5.2729536E-2,1.1610887E-2,-5.184501E-2,1.884654E-2,3.1802945E-2,-1.0635502E-4],"split_indices":[1,16,6,6,16,0,0,3,1,6,16,0,0,0,0,0,0,0,0],"split_type":[0,0,0,0,0,0,0,0,0,0,0,0,0,0,0,0,0,0,0],"sum_hessian":[1.0651813E3,1.0609902E3,4.191056E0,1.3063386E1,1.0479269E3,1.0230184E0,3.1680374E0,5.0964727E0,7.966913E0,1.6200754E1,1.0317261E3,3.9109514E0,1.1855215E0,6.2445984E0,1.722315E0,1.0617707E1,5.583047E0,1.18027725E1,1.0199233E3],"tree_param":{"num_deleted":"0","num_feature":"22","num_nodes":"19","size_leaf_vector":"1"}},{"base_weights":[4.0818934E-4,2.916673E-2,-1.251011E-1,-3.843702E-2,1.2791817E-1,9.253572E-2,-2.923377E-1,1.2213863E-2,-3.6630076E-1,-4.5726442E-1,1.8297662E-1,3.721102E-1,-2.6899388E-1,-4.6234727E-1,3.327898E-1,-4.9037468E-2,1.6406045E-3,9.822547E-3,-3.707578E-2,-4.8515707E-2,1.0207915E-3,3.1102052E-2,5.2967523E-3,-2.4699943E-2,2.6373047E-2,2.7122468E-2,-3.1124873E-2,9.880665E-3,-3.418334E-2,3.469189E-2,-4.6804704E-2],"categories":[],"categories_nodes":[],"categories_segments":[],"categories_sizes":[],"default_left":[0,0,0,0,0,0,0,0,0,0,0,0,0,0,0,0,0,0,0,0,0,0,0,0,0,0,0,0,0,0,0],"id":45,"left_children":[1,3,5,7,9,11,13,15,17,19,21,23,25,27,29,-1,-1,-1,-1,-1,-1,-1,-1,-1,-1,-1,-1,-1,-1,-1,-1],"loss_changes":[3.8499799E0,5.7982E0,7.2642794E0,8.57181E0,1.1453257E1,8.909866E0,1.2129339E1,9.191824E0,1.4729432E1,7.5270004E0,1.0868409E1,6.9304137E0,1.140712E1,1.3135656E1,1.1953335E1,0E0,0E0,0E0,0E0,0E0,0E0,0E0,0E0,0E0,0E0,0E0,0E0,0E0,0E0,0E0,0E0],"parents":[2147483647,0,0,1,1,2,2,3,3,4,4,5,5,6,6,7,7,8,8,9,9,10,10,11,11,12,12,13,13,14,14],"right_children":[2,4,6,8,10,12,14,16,18,20,22,24,26,28,30,-1,-1,-1,-1,-1,-1,-1,-1,-1,-1,-1,-1,-1,-1,-1,-1],"split_conditions":[6.606447E1,6.6938263E-1,1.1E1,4.4717622E-1,-6.5487367E-1,1.402E1,4.181763E-1,7.484758E-1,1.862E3,8.88E2,1E0,3.134375E-2,1.2471138E0,9.665796E-1,7.452736E1,-4.9037468E-2,1.6406045E-3,9.822547E-3,-3.707578E-2,-4.8515707E-2,1.0207915E-3,3.1102052E-2,5.2967523E-3,-2.4699943E-2,2.6373047E-2,2.7122468E-2,-3.1124873E-2,9.880665E-3,-3.418334E-2,3.469189E-2,-4.6804704E-2],"split_indices":[0,1,19,3,3,20,3,8,16,16,11,6,1,8,0,0,0,0,0,0,0,0,0,0,0,0,0,0,0,0,0],"split_type":[0,0,0,0,0,0,0,0,0,0,0,0,0,0,0,0,0,0,0,0,0,0,0,0,0,0,0,0,0,0,0],"sum_hessian":[1.0646239E3,8.6678174E2,1.9784221E2,5.1489984E2,3.518819E2,8.616121E1,1.11681E2,4.468325E2,6.806734E1,2.9632376E1,3.222495E2,4.8571285E1,3.7589928E1,8.800702E1,2.367398E1,8.133502E0,4.3869897E2,2.741957E1,4.0647766E1,1.379E1,1.5842376E1,4.704772E1,2.752018E2,7.055526E0,4.151576E1,1.1244485E1,2.6345442E1,2.2128468E1,6.5878555E1,1.8782736E1,4.891245E0],"tree_param":{"num_deleted":"0","num_feature":"22","num_nodes":"31","size_leaf_vector":"1"}},{"base_weights":[2.9748376E-4,8.657789E-1,-3.820143E-3,5.9160568E-2,-6.3091046E-3,-8.735936E-2,4.188762E-2,7.337291E-1,-1.1725607E-1,-2.4455538E-1,7.177532E-2,4.6682384E-2,7.055559E-4,-2.5727674E-3,-3.283463E-2,3.348253E-2,-1.6768357E-2,4.368381E-3,-2.761488E-2],"categories":[],"categories_nodes":[],"categories_segments":[],"categories_sizes":[],"default_left":[0,0,0,0,0,0,0,0,0,0,0,0,0,0,0,0,0,0,0],"id":46,"left_children":[1,3,5,-1,-1,7,9,11,13,15,17,-1,-1,-1,-1,-1,-1,-1,-1],"loss_changes":[3.7986674E0,1.738579E0,4.054779E0,0E0,0E0,9.304368E0,5.8941126E0,1.904645E0,1.2857914E1,5.627721E0,6.1040993E0,0E0,0E0,0E0,0E0,0E0,0E0,0E0,0E0],"parents":[2147483647,0,0,1,1,2,2,5,5,6,6,7,7,8,8,9,9,10,10],"right_children":[2,4,6,-1,-1,8,10,12,14,16,18,-1,-1,-1,-1,-1,-1,-1,-1],"split_conditions":[2.499908E1,-2.1644735E0,-1.2010637E-1,5.9160568E-2,-6.3091046E-3,1.021977E0,2E0,6.425E3,-1.694919E-1,-8.1748895E-2,7.6513626E1,4.6682384E-2,7.055559E-4,-2.5727674E-3,-3.283463E-2,3.348253E-2,-1.6768357E-2,4.368381E-3,-2.761488E-2],"split_indices":[0,1,3,0,0,8,19,16,3,3,0,0,0,0,0,0,0,0,0],"split_type":[0,0,0,0,0,0,0,0,0,0,0,0,0,0,0,0,0,0,0],"sum_hessian":[1.0639967E3,4.047244E0,1.0599495E3,2.9200222E0,1.1272217E0,3.745253E2,6.8542413E2,1.2330696E1,3.621946E2,6.4081924E1,6.213422E2,9.417093E0,2.9136033E0,3.2379352E2,3.8401093E1,5.214387E0,5.8867535E1,6.070356E2,1.4306627E1],"tree_param":{"num_deleted":"0","num_feature":"22","num_nodes":"19","size_leaf_vector":"1"}},{"base_weights":[3.484988E-4,1.1990971E-2,-3.0214053E-1,7.3726386E-1,5.135457E-3,8.247093E-1,-4.8413995E-1,9.126005E-1,-2.7177194E-3,-4.3608266E-1,1.6719792E-2,6.2110197E-2,-2.1494998E-2,-7.2159976E-1,7.3009324E-1,-6.1655324E-3,5.985066E-2,-3.597989E-2,3.187549E-2,2.8270239E-3,-6.0430598E-3,-1.7482338E-2,-5.4604698E-2,5.2953046E-2,-9.7422665E-3],"categories":[],"categories_nodes":[],"categories_segments":[],"categories_sizes":[],"default_left":[0,0,0,0,0,0,0,0,0,0,0,0,0,0,0,0,0,0,0,0,0,0,0,0,0],"id":47,"left_children":[1,3,5,7,9,11,13,15,-1,17,19,-1,-1,21,23,-1,-1,-1,-1,-1,-1,-1,-1,-1,-1],"loss_changes":[3.7532687E0,5.098705E0,8.500022E0,1.3824039E0,5.2085624E0,3.6046996E0,1.0513741E1,2.4802666E0,0E0,8.394327E0,5.444571E0,0E0,0E0,3.6798735E0,2.0815322E0,0E0,0E0,0E0,0E0,0E0,0E0,0E0,0E0,0E0,0E0],"parents":[2147483647,0,0,1,1,2,2,3,3,4,4,5,5,6,6,7,7,9,9,10,10,13,13,14,14],"right_children":[2,4,6,8,10,12,14,16,-1,18,20,-1,-1,22,24,-1,-1,-1,-1,-1,-1,-1,-1,-1,-1],"split_conditions":[7.8325396E0,2.1E-1,3E0,3.2653267E0,2.8E-1,-4.3115325E0,2.3E1,5.27E2,-2.7177194E-3,9.37E2,1E0,6.2110197E-2,-2.1494998E-2,-5.4119263E0,5.5024734E1,-6.1655324E-3,5.985066E-2,-3.597989E-2,3.187549E-2,2.8270239E-3,-6.0430598E-3,-1.7482338E-2,-5.4604698E-2,5.2953046E-2,-9.7422665E-3],"split_indices":[8,13,19,2,13,2,19,16,0,16,12,0,0,2,0,0,0,0,0,0,0,0,0,0,0],"split_type":[0,0,0,0,0,0,0,0,0,0,0,0,0,0,0,0,0,0,0,0,0,0,0,0,0],"sum_hessian":[1.06372E3,1.0252207E3,3.8499264E1,8.602325E0,1.0166184E3,4.8623886E0,3.3636875E1,6.9173603E0,1.6849653E0,2.507131E1,9.9154706E2,3.6557555E0,1.2066331E0,2.8474094E1,5.1627812E0,1.6120942E0,5.305266E0,2.0094475E1,4.9768343E0,7.6943506E2,2.22112E2,1.5179027E1,1.3295068E1,3.7013397E0,1.4614414E0],"tree_param":{"num_deleted":"0","num_feature":"22","num_nodes":"25","size_leaf_vector":"1"}},{"base_weights":[3.9423318E-4,-1.02342125E-2,3.2719612E-1,9.33203E-3,-2.311892E-1,-4.9705718E-2,4.5328623E-1,1.7699163E-2,-5.497888E-1,2.8083047E-1,-4.282866E-1,6.625669E-1,-3.236968E-1,3.5818683E-3,-3.2516082E-3,1.4908935E-2,-4.3452244E-2,-6.392526E-2,2.9158125E-2,-1.1275703E-2,-4.8800968E-2,4.3401524E-2,7.957495E-4,-3.154255E-2,1.7835215E-2],"categories":[],"categories_nodes":[],"categories_segments":[],"categories_sizes":[],"default_left":[0,0,0,0,0,0,0,0,0,0,0,0,0,0,0,0,0,0,0,0,0,0,0,0,0],"id":48,"left_children":[1,3,5,7,9,-1,11,13,15,17,19,21,23,-1,-1,-1,-1,-1,-1,-1,-1,-1,-1,-1,-1],"loss_changes":[3.7008045E0,4.463532E0,6.0419197E0,4.449192E0,8.596056E0,0E0,5.3079243E0,4.1811657E0,4.055368E0,1.2035534E1,6.559206E0,3.308447E0,1.7545109E0,0E0,0E0,0E0,0E0,0E0,0E0,0E0,0E0,0E0,0E0,0E0,0E0],"parents":[2147483647,0,0,1,1,2,2,3,3,4,4,6,6,7,7,8,8,9,9,10,10,11,11,12,12],"right_children":[2,4,6,8,10,-1,12,14,16,18,20,22,24,-1,-1,-1,-1,-1,-1,-1,-1,-1,-1,-1,-1],"split_conditions":[6.4E-1,2.8E1,3.035676E0,5.495142E0,1E0,-4.9705718E-2,7.0942245E1,4.094E3,1.72E1,2.8E-1,1.6965404E0,1E0,9.2933595E-1,3.5818683E-3,-3.2516082E-3,1.4908935E-2,-4.3452244E-2,-6.392526E-2,2.9158125E-2,-1.1275703E-2,-4.8800968E-2,4.3401524E-2,7.957495E-4,-3.154255E-2,1.7835215E-2],"split_indices":[13,19,8,2,11,0,0,16,20,13,2,12,7,0,0,0,0,0,0,0,0,0,0,0,0],"split_type":[0,0,0,0,0,0,0,0,0,0,0,0,0,0,0,0,0,0,0,0,0,0,0,0,0],"sum_hessian":[1.0635074E3,1.030947E3,3.256039E1,9.4796E2,8.298701E1,2.2367816E0,3.0323608E1,9.3493726E2,1.3022809E1,2.2947962E1,6.0039043E1,2.4005087E1,6.3185215E0,5.6603467E2,3.6890256E2,3.5800238E0,9.442785E0,3.2023602E0,1.9745602E1,4.484791E1,1.5191132E1,1.795714E1,6.047948E0,4.4034786E0,1.9150429E0],"tree_param":{"num_deleted":"0","num_feature":"22","num_nodes":"25","size_leaf_vector":"1"}},{"base_weights":[2.5183219E-4,2.3714131E-1,-1.4303686E-2,-2.6391676E-2,4.9570093E-1,-1.2971137E-1,3.9377686E-2,2.2550014E-1,-6.5557283E-1,7.1329767E-1,-9.1807574E-2,7.7946645E-1,-1.6063698E-1,-2.3469011E-1,6.8033405E-2,5.4769486E-2,2.2804877E-3,-4.6993833E-2,3.8457435E-2,1.638863E-2,5.331273E-2,8.94697E-3,-5.2363466E-2,5.1925655E-2,-2.738475E-4,-3.8668152E-3,-2.9642155E-2,5.5060335E-2,-1.4615744E-2,4.043681E-3,-3.3820514E-2],"categories":[],"categories_nodes":[],"categories_segments":[],"categories_sizes":[],"default_left":[0,0,0,0,0,0,0,0,0,0,0,0,0,0,0,0,0,0,0,0,0,0,0,0,0,0,0,0,0,0,0],"id":49,"left_children":[1,3,5,7,9,11,13,15,17,19,21,23,25,27,29,-1,-1,-1,-1,-1,-1,-1,-1,-1,-1,-1,-1,-1,-1,-1,-1],"loss_changes":[3.671539E0,4.213134E0,6.220133E0,5.1362615E0,4.049474E0,9.086636E0,5.399401E0,3.5837784E0,4.4715023E0,2.7605057E0,2.5954413E0,2.1723413E0,1.1081441E1,5.33422E0,5.9941797E0,0E0,0E0,0E0,0E0,0E0,0E0,0E0,0E0,0E0,0E0,0E0,0E0,0E0,0E0,0E0,0E0],"parents":[2147483647,0,0,1,1,2,2,3,3,4,4,5,5,6,6,7,7,8,8,9,9,10,10,11,11,12,12,13,13,14,14],"right_children":[2,4,6,8,10,12,14,16,18,20,22,24,26,28,30,-1,-1,-1,-1,-1,-1,-1,-1,-1,-1,-1,-1,-1,-1,-1,-1],"split_conditions":[3.6088543E1,2.608E1,-1.2010637E-1,8.2569376E-2,4.364E1,1.01741E0,2E0,2.9535547E1,1.1590816E-1,-9.52914E-1,3.4445263E1,